#include "nn_params.h"

const unsigned short LAYER_DIMS[] = {
    5, 100, 100, 100, 2
};

const Layer LAYER_TYPES[] = {
    DENSE, RELU, DENSE, RELU, DENSE, RELU, DENSE, TANH
};

const float INPUT_SCALER_PARAMS[2][NUM_STATE_VARS] = {
    {5.443935367e-03, -3.033234667e-03, 4.349294509e-01, 
        1.990146934e-01, -6.559776723e-04},
    {3.609147198e+00, 2.680498545e+00, 3.576341606e+00, 
        2.631996060e+00, 4.408049966e-01}
};

const float OUTPUT_SCALER_PARAMS[4][NUM_CONTROL_VARS] = {
    {-1.838037239e-01, 4.433946998e-02},
    {3.356788837e-01, 4.005422286e-02},
    {1.527338921e+00, 1.342420270e+00},
    {3.713693056e+00, 1.115321900e-03}
};


const float BIASES[NUM_DENSE_LAYERS][MAX_LAYER_DIMS] = {
    {-9.498614073e-02, -1.426639557e-01, -7.375280261e-01, 
        -1.465580612e-01, -1.142149195e-01, -1.126742840e+00, 
        1.288275123e-01, 1.617492437e-01, -8.944575489e-02, 
        -3.636222780e-01, -4.273761436e-02, 1.274553407e-02, 
        8.309756964e-02, 4.140654206e-02, -5.383507162e-02, 
        -2.403835505e-01, 1.157485917e-01, -8.190932870e-02, 
        8.040208369e-02, -1.032492965e-01, -1.122294143e-01, 
        1.958963722e-01, -7.032377273e-02, 8.007556945e-02, 
        -3.147958815e-01, -1.162663177e-01, 5.847411975e-02, 
        6.244732812e-02, 4.708145186e-02, -9.109652042e-02, 
        -1.913268119e-01, -9.893596917e-02, -1.471656710e-01, 
        7.556222379e-02, -3.520008922e-01, -5.713606477e-01, 
        1.665508300e-01, 6.418779958e-03, -9.723410755e-02, 
        -4.929971695e-02, -6.596673280e-02, -4.868258163e-02, 
        -4.818074703e-01, -2.535835803e-01, -8.198011518e-01, 
        8.689681441e-02, -1.850191802e-01, -1.451990604e-01, 
        -1.092748791e-01, -6.864247322e-01, 9.469673783e-02, 
        -1.169466376e-01, -7.540205717e-01, -3.782115877e-01, 
        -3.131293952e-01, -2.887882590e-01, 2.635073662e-01, 
        -2.647016570e-02, 4.144456983e-02, -1.401335299e-01, 
        -4.513671398e-01, -6.861704588e-01, -5.560309887e-01, 
        -4.988061264e-02, -1.214321703e-01, -1.419011503e-01, 
        -4.600450695e-01, -6.323365122e-02, -3.495639563e-01, 
        -7.463701963e-01, -4.642134309e-01, -6.563659310e-01, 
        2.865649760e-03, -9.995811619e-03, -9.542005509e-02, 
        1.585738957e-01, -2.823559344e-01, -5.645627901e-02, 
        -5.695371330e-02, -2.183774859e-01, 1.515973508e-01, 
        -1.378357410e-01, -1.062375605e-01, -4.420436919e-03, 
        -1.592828780e-01, -6.864449382e-01, -1.327096671e-01, 
        6.782060117e-02, 7.162049413e-02, -1.946129464e-02, 
        -2.604459226e-02, -1.368833482e-01, 1.278970391e-01, 
        -1.299007237e-01, -4.114359617e-02, 5.164294690e-02, 
        5.199714750e-02, -5.981575847e-01, -4.286341071e-01, 
        -2.888203971e-02},
    {1.436240673e-01, 3.244859278e-01, -3.972256184e-02, 
        2.111029923e-01, 3.057825752e-02, 1.369670480e-01, 
        1.116796061e-01, -2.437311225e-02, 2.906283140e-01, 
        1.458105892e-01, 1.868449450e-01, 2.524819076e-01, 
        -1.400911570e+00, 5.579666421e-02, 3.408132866e-02, 
        8.251236379e-02, 2.803619206e-01, 1.355493963e-01, 
        1.218564659e-01, 1.995499134e-01, 3.127941787e-01, 
        3.024679981e-02, -6.793611646e-01, 1.302884370e-01, 
        2.257498205e-01, 2.883091867e-01, 2.258481085e-01, 
        -5.803563446e-02, 1.076928899e-01, 9.108804166e-02, 
        -3.859488964e-01, -7.591727972e-01, 1.597021818e-01, 
        7.968655974e-02, -9.531665444e-01, 2.951536775e-01, 
        1.135995910e-01, 2.003054693e-02, 2.527372837e-01, 
        1.353200674e-01, -4.379073158e-02, 2.205132991e-01, 
        1.125954539e-01, 1.637972295e-01, 8.579768986e-02, 
        -5.995573848e-02, 2.819885314e-01, -1.243844181e-01, 
        -5.806792974e-01, 2.031989992e-01, -7.129583508e-03, 
        1.226965487e-01, 1.212255210e-01, 1.755094230e-01, 
        2.777894735e-01, -4.736191034e-01, 2.766515911e-01, 
        3.117739260e-01, -3.947662190e-02, 2.562465705e-02, 
        2.646805048e-01, 1.068762019e-01, 3.499210179e-01, 
        3.399507701e-01, 2.169685960e-01, -8.675042540e-02, 
        -2.425407991e-02, 2.768026888e-01, 4.178860784e-01, 
        2.176133543e-01, -1.220627800e-01, -1.577068307e-02, 
        -7.235891819e-01, 1.553182155e-01, 6.493642181e-02, 
        4.082396328e-01, 3.465383351e-01, 1.795018762e-01, 
        -1.610482112e-02, 9.371990710e-02, 4.110559523e-01, 
        3.319353759e-01, -1.521742493e-01, -1.687382720e-02, 
        1.480757594e-01, -3.608975112e-01, -2.399068177e-01, 
        6.223299354e-02, 3.465551883e-02, 3.111197054e-01, 
        -1.564585604e-02, 3.277857304e-01, 3.719917536e-01, 
        1.408629715e-01, 2.081086338e-01, 1.289539337e-01, 
        -5.229132250e-02, 1.897562444e-01, -1.464915276e-02, 
        1.459180117e-01},
    {-3.354478478e-01, -2.155239135e-02, 3.580892384e-01, 
        1.009510905e-01, 3.827480078e-01, -6.749630570e-01, 
        3.381431699e-01, -8.102759123e-01, -2.080991268e-01, 
        -1.274476647e-01, 8.705109358e-02, 3.063258231e-01, 
        3.717459440e-01, -1.874591261e-01, -5.683073997e-01, 
        -4.785926044e-01, -1.778558046e-01, -2.825765014e-01, 
        3.853642642e-01, 1.394898593e-01, 2.612241507e-01, 
        5.883419514e-01, -2.841144085e+00, 2.694472373e-01, 
        -3.789370358e-01, 3.035835624e-01, -9.098686576e-01, 
        6.152346134e-01, 3.584595621e-01, 4.983806014e-01, 
        5.378360748e-01, -1.436478943e-01, 2.956204116e-01, 
        2.763566971e-01, 3.336487114e-01, 4.915391207e-01, 
        4.944705665e-01, 2.250061929e-01, -1.072853208e-01, 
        -1.263930321e+00, 2.193880230e-01, -3.799189255e-02, 
        1.413754970e-01, 2.697167993e-01, -1.214730144e+00, 
        1.922730058e-01, 2.709361315e-01, 1.879805028e-01, 
        2.713294923e-01, 2.253382206e-01, 4.720330238e-01, 
        1.432773378e-02, -2.694784999e-01, 4.742780626e-01, 
        2.881505787e-01, 5.446168780e-01, 2.407220155e-01, 
        5.922835469e-01, -1.563182473e+00, 5.495516062e-01, 
        -8.753030747e-02, 1.033396795e-01, -1.180839613e-01, 
        3.334008455e-01, 6.571381688e-01, 2.317844182e-01, 
        4.238958657e-01, -9.554561973e-02, 6.295344234e-01, 
        4.313880503e-01, 3.610937595e-01, -1.233178973e-01, 
        -8.277340233e-02, 2.436878830e-01, -4.549599886e-01, 
        -8.640755415e-01, 5.427786708e-01, 1.557106972e-01, 
        4.177218080e-01, -2.552856803e-01, 4.245919883e-01, 
        2.230704427e-01, -1.976351440e-01, -6.123512387e-01, 
        2.408861518e-01, 6.104883552e-01, 3.500236273e-01, 
        -1.184166223e-01, -7.474417984e-02, 1.983071268e-01, 
        -1.305895448e-01, 1.103316993e-01, 6.471286416e-01, 
        1.916139871e-01, 1.757763773e-01, 3.334232271e-01, 
        1.390382349e-01, 3.866545558e-01, -3.074834347e-01, 
        -2.746059299e-01},
    {-6.757970154e-02, 4.136378691e-02}
};

const float WEIGHTS[NUM_DENSE_LAYERS][MAX_LAYER_DIMS][MAX_LAYER_DIMS] = {
    {
        {6.787692010e-02, 3.770790994e-01, -6.001247168e-01, 
            -2.747010291e-01, 1.100834608e-01},
        {8.051806092e-01, -7.612910122e-02, -1.147169709e+00, 
            -1.281074584e-01, -5.186606199e-02},
        {-1.133168697e+00, 1.737744063e-01, -2.353480905e-01, 
            2.309999615e-01, 2.003531158e-01},
        {9.883346409e-02, -8.369097114e-02, -1.100198746e+00, 
            -3.609972000e-01, 1.170279831e-01},
        {1.291890502e+00, -1.311103702e-01, -9.869222045e-01, 
            -1.414990276e-01, -1.317589879e-01},
        {1.208883058e-02, -6.858766824e-02, -6.632130742e-01, 
            -3.470357060e-01, -4.429125786e-01},
        {-9.147986174e-01, 6.847604513e-01, 9.739070535e-01, 
            9.166948497e-02, 3.351952648e-03},
        {2.006396055e-01, -1.931227297e-01, 9.469201565e-01, 
            3.842939436e-01, -4.666455090e-03},
        {-8.478857577e-02, 1.705418974e-01, -1.003134370e+00, 
            -3.698661327e-01, -2.150522545e-02},
        {-3.999708295e-01, -6.054263711e-01, 2.728956640e-01, 
            -4.256088752e-03, 1.590855047e-02},
        {1.420821667e+00, 6.571488976e-01, 2.739838362e-01, 
            -2.607218921e-01, 1.976649910e-01},
        {-2.670104980e+00, -3.063075542e-01, 9.636164457e-02, 
            4.502305761e-02, 6.213617325e-02},
        {8.925160766e-02, 2.026568912e-02, 8.749617338e-01, 
            -3.153786957e-01, 2.310837060e-02},
        {-1.688027382e+00, -1.058054328e+00, 2.972173393e-01, 
            8.504409343e-02, -1.754152030e-02},
        {8.559347987e-01, 6.759496033e-02, 6.332964897e-01, 
            4.384583533e-01, -4.265113547e-02},
        {-2.581427097e-01, -3.220806420e-01, 3.102115393e-01, 
            -3.737482131e-01, -2.755845189e-01},
        {-3.773673534e+00, -1.153554171e-01, 4.456103146e-01, 
            1.514114887e-01, -8.695230819e-03},
        {-6.219869256e-01, -2.901281975e-02, -6.895915866e-01, 
            -2.018865347e-01, 2.099324018e-01},
        {-6.641455293e-01, -3.355906904e-01, 3.992686570e-01, 
            2.628306448e-01, -2.212670147e-01},
        {-1.348453999e+00, -1.391147077e-01, -7.948033810e-01, 
            -2.017048746e-01, 1.005107760e-01},
        {-1.849351674e-01, -5.413097143e-01, -9.961177707e-01, 
            -4.363791645e-02, -2.129998803e-02},
        {3.944539279e-02, 9.972804785e-02, 1.281793594e+00, 
            3.409831598e-02, 1.547815930e-02},
        {3.734375834e-01, 4.811045527e-02, -1.070172191e-01, 
            -3.804673851e-01, 1.873185337e-01},
        {9.649499059e-01, 3.329617381e-01, 3.165335059e-01, 
            2.771165371e-01, 2.070229501e-02},
        {-6.801599860e-01, 8.362133987e-03, -1.339353800e+00, 
            -4.003132582e-01, -2.068255246e-01},
        {-2.916104555e+00, -6.823462993e-02, -1.403395295e+00, 
            -3.720285743e-02, -6.430468638e-04},
        {-6.441177130e-01, -3.231497705e-01, 8.609777689e-01, 
            1.745820194e-01, -8.994311839e-02},
        {4.189366400e-01, 4.002395570e-01, 4.147537053e-01, 
            -1.442005187e-01, 2.354926765e-01},
        {4.882742882e+00, 3.567158878e-01, -4.735713899e-01, 
            -2.810338326e-02, 3.548671678e-02},
        {-1.661786079e+00, -6.975105405e-01, 9.504733980e-02, 
            -1.867547818e-02, -2.425801307e-01},
        {-1.002290606e+00, 2.360040992e-01, 4.549385309e-01, 
            4.344286323e-01, 1.575961523e-02},
        {7.718712091e-01, -2.655622661e-01, 3.164241910e-01, 
            3.125849962e-01, -6.332650036e-02},
        {-1.580201268e+00, -9.776541591e-02, -1.468289971e+00, 
            -1.073883921e-01, -3.136197105e-03},
        {8.783548474e-01, -5.876048654e-02, 6.199399829e-01, 
            2.276700884e-01, 2.273055725e-02},
        {-1.297736168e-01, -1.529176235e-01, -1.021507904e-01, 
            -6.647165865e-02, -3.293868899e-01},
        {6.857748330e-02, -1.889984310e-01, -7.481571436e-01, 
            1.818539202e-01, -3.299744055e-02},
        {2.070235461e-01, 5.106133819e-01, 1.282150984e+00, 
            2.260357589e-01, 1.162269339e-01},
        {1.898065925e+00, 3.249201179e-01, 6.874081492e-02, 
            -5.834081676e-03, -1.137434244e-01},
        {-5.057802796e-01, -1.998214237e-02, 4.767445624e-01, 
            -1.147032082e-01, 2.692158222e-01},
        {-1.040354967e+00, -2.615934014e-01, -4.818516970e-01, 
            -2.232416719e-01, 1.680316627e-01},
        {7.540198565e-01, 1.871223748e-01, -2.713825405e-01, 
            -5.686066747e-01, -5.289958417e-02},
        {-7.979605198e-01, 1.152905375e-01, -7.103960216e-02, 
            -2.528279126e-01, -1.014174521e-01},
        {1.920969188e-01, -2.894763052e-01, -2.894371748e-01, 
            -1.852466911e-01, 1.508188099e-01},
        {7.314970493e-01, 6.260381639e-02, -5.814292431e-01, 
            -4.045844078e-01, 2.135398835e-01},
        {4.335182011e-01, 6.334404945e-01, 3.049705327e-01, 
            1.916146278e-01, -1.199128181e-01},
        {1.544820219e-01, 8.625897020e-02, 3.472901881e-01, 
            3.559826314e-01, 1.353165358e-01},
        {1.064898133e+00, -1.353575196e-02, -3.409853876e-01, 
            1.132207178e-02, -4.253736883e-02},
        {8.751210570e-01, -5.941735953e-02, -9.764708281e-01, 
            -5.219898224e-01, -1.299490035e-01},
        {-2.343148887e-01, 8.070835471e-02, -7.612064481e-01, 
            -4.779148400e-01, 2.403791398e-01},
        {-9.175218344e-01, -5.343929529e-01, 3.345298171e-01, 
            -3.357727453e-02, 2.845749259e-01},
        {4.968985021e-01, -3.007508814e-01, 5.435200334e-01, 
            2.702228725e-01, 5.975199491e-02},
        {-5.310353041e-01, -2.944751680e-01, -1.170743704e+00, 
            -5.743357167e-02, -6.417515874e-02},
        {2.098556310e-01, 1.939346194e-01, 2.266781628e-01, 
            2.046790868e-01, 5.862486362e-01},
        {-1.835163310e-02, 3.261523247e-01, -4.415253103e-01, 
            -3.241417706e-01, 4.667635560e-01},
        {-3.716268837e-01, 1.143383384e-01, -5.091215372e-01, 
            -4.117168784e-01, -2.203229517e-01},
        {-1.284979343e+00, 1.751507223e-01, -1.465869904e+00, 
            -3.602638543e-01, 1.328999251e-01},
        {-8.153845668e-01, -1.603811532e-01, 1.076191068e+00, 
            2.221625298e-01, -3.157078847e-02},
        {4.379783869e-01, 1.929363608e-01, -8.422271162e-02, 
            -9.934806824e-02, -1.466858834e-01},
        {7.458086610e-01, 6.970557570e-01, 2.140618265e-01, 
            1.604209840e-01, 1.217769113e-05},
        {3.385802507e-01, 2.572799325e-01, -1.299371123e+00, 
            -1.799902469e-01, 9.577214718e-02},
        {2.571380138e-01, 2.833565474e-01, 1.027101874e+00, 
            -5.445756018e-02, -2.126366645e-01},
        {-6.097626686e-01, -3.326558173e-01, 9.551560283e-01, 
            3.690373302e-01, -7.454977185e-02},
        {-9.662730694e-01, 2.380897254e-01, 6.304141283e-01, 
            1.484995037e-01, -6.098924670e-03},
        {1.115957379e+00, 3.078666925e-01, -4.269662797e-01, 
            -2.545720935e-01, -1.974302232e-01},
        {-1.062363625e+00, -2.222100943e-01, -7.991647124e-01, 
            -4.843275547e-01, -1.539087892e-01},
        {2.737375163e-02, -3.393867984e-02, -1.094271421e+00, 
            -3.024388254e-01, -1.767517775e-01},
        {-1.577276140e-01, -4.354289174e-02, -6.913554072e-01, 
            1.840915978e-01, -1.301132292e-01},
        {1.101843834e+00, 2.701125145e-01, -4.778379798e-01, 
            -2.891432866e-02, 1.691817045e-01},
        {4.043946862e-01, -2.063582540e-01, 5.055971146e-01, 
            5.636546612e-01, -2.900733054e-02},
        {-3.211402893e-01, 3.270167857e-02, -1.051752806e+00, 
            2.108703181e-02, 1.682383269e-01},
        {7.521193624e-01, 5.110137463e-01, 1.811865717e-01, 
            -1.469933391e-01, -2.845619619e-01},
        {2.386517674e-01, -1.245685294e-01, -8.640539646e-01, 
            -7.379709929e-02, -1.724289060e-01},
        {-3.962238431e-01, -3.180017173e-01, 7.206811011e-02, 
            -7.511729747e-02, 1.063399315e-01},
        {2.701780498e-01, 6.234483123e-01, -8.308910765e-03, 
            -7.320035249e-02, 3.205351532e-02},
        {-5.676559210e-01, -3.663408160e-01, 3.788824007e-02, 
            -4.033564627e-01, -2.782307565e-02},
        {9.371344000e-02, 1.690590195e-02, 1.305515766e+00, 
            1.003083438e-01, -1.320675910e-01},
        {-1.404951096e+00, -5.066176057e-01, 3.798884749e-01, 
            -3.632966056e-02, 1.761048436e-01},
        {5.220648050e-01, -2.529239357e-01, -3.716698885e-01, 
            -2.410965413e-01, -1.228004918e-01},
        {3.480694294e+00, 4.496917725e-01, -1.113373637e+00, 
            2.818689682e-02, 3.297987953e-02},
        {-2.709146142e-01, 5.409832001e-01, 5.642878413e-01, 
            9.609672427e-02, 1.138283387e-01},
        {-1.788590550e-01, 2.472925484e-01, 9.662591815e-01, 
            3.486619890e-01, 2.601747168e-03},
        {-6.098250151e-01, -6.610916257e-01, -2.977070771e-02, 
            -1.734745800e-01, -2.257996053e-01},
        {-7.597770095e-01, -4.608334303e-01, -1.147549897e-01, 
            -1.902079284e-01, -2.974380255e-01},
        {5.064662099e-01, 3.783922493e-01, 8.149764687e-02, 
            -4.404076934e-02, -1.732186973e-01},
        {-1.429586768e+00, -2.809861004e-01, -6.721781492e-01, 
            8.406179026e-03, -4.003156349e-02},
        {-1.268085837e+00, -1.226474792e-01, -3.252690285e-02, 
            -2.558701634e-01, 3.093417585e-01},
        {-1.057579875e+00, -5.503327027e-02, -8.466928601e-01, 
            -5.120183229e-01, 4.058332369e-02},
        {6.380338222e-02, -6.567746401e-01, 5.165650845e-01, 
            3.525383398e-02, -1.257571857e-02},
        {9.308573604e-01, 5.124650002e-01, 2.519327104e-01, 
            1.599156857e-01, 1.982379407e-01},
        {-1.466074347e+00, -3.755481839e-01, -3.996413350e-01, 
            -1.697845310e-01, 1.805783104e-04},
        {5.826873183e-01, 3.918508291e-01, 7.225132734e-02, 
            9.484718740e-02, 2.628359795e-01},
        {1.783688664e-01, -2.552051842e-01, -9.444918633e-01, 
            -4.703789651e-01, 5.308098346e-02},
        {8.169532418e-01, -1.717491150e-01, 9.729949236e-01, 
            2.198025882e-01, 8.525411598e-03},
        {3.863764228e-03, -1.426712424e-02, -1.381540775e+00, 
            -1.618033797e-01, 1.740785781e-03},
        {-2.022899389e-01, 1.305582970e-01, -5.501524359e-02, 
            -3.228697479e-01, -1.411217302e-01},
        {-3.266808271e+00, -3.562513292e-01, -3.361310065e-01, 
            3.536073864e-02, -3.362612799e-02},
        {4.919870198e-02, -3.908429444e-01, 1.156842828e+00, 
            4.264596105e-01, -2.443248034e-02},
        {-7.229465246e-01, 1.454154998e-01, 2.341195941e-01, 
            5.562697649e-01, 1.816389151e-02},
        {1.270314574e+00, -1.013167799e-01, 6.942896843e-01, 
            3.573610783e-01, 1.497592591e-02},
        {-8.939194083e-01, -1.322641224e-02, -7.237490267e-02, 
            2.679990232e-01, -8.380664140e-02}
    },
    {
        {8.671377599e-02, -7.990212440e-01, -3.585891426e-01, 
            -2.008045837e-02, -1.077631474e+00, -8.332309127e-01, 
            3.008258045e-01, -1.063174456e-01, 1.582894623e-01, 
            1.706642359e-01, -4.613469243e-01, -7.839890122e-01, 
            2.853254080e-01, 1.623350680e-01, 1.601430401e-02, 
            -3.566835076e-02, 9.721655250e-01, -3.619758785e-02, 
            -1.932323538e-02, -3.313563168e-01, -2.381250560e-01, 
            4.523629546e-01, 2.561909854e-01, 2.999024391e-01, 
            -1.814161986e-01, 5.436921716e-01, -4.499424715e-03, 
            1.930129379e-01, -1.399601221e+00, -5.845510587e-02, 
            1.678318083e-01, 5.636520982e-01, 1.059194431e-01, 
            -2.309799939e-01, -4.370464757e-02, 4.384164140e-02, 
            -4.124580026e-01, -3.324808180e-01, -7.979928702e-02, 
            2.887096405e-01, 4.395407140e-01, 3.613441885e-01, 
            6.655808091e-01, 4.823062569e-02, -1.036741138e+00, 
            3.577505648e-01, -1.541953087e-01, -9.477952123e-02, 
            1.998614073e-01, -1.757539362e-01, -8.087324351e-02, 
            -7.273927331e-01, 7.820431888e-02, -3.081289530e-01, 
            -4.805169106e-01, -9.303356409e-01, 4.577884674e-01, 
            2.738998830e-01, 4.883050025e-01, 1.846268624e-01, 
            5.304513127e-02, -8.905895948e-01, -8.944862485e-01, 
            -1.724140197e-01, -2.630402148e-01, -7.685593516e-02, 
            -1.060775295e-01, -5.677949190e-01, 6.535321474e-01, 
            -1.108104084e-02, -2.909325063e-01, 7.102283239e-01, 
            1.567279547e-01, 2.970313281e-02, -2.521721646e-02, 
            1.392489970e-01, -4.193825126e-01, -1.496265531e-01, 
            -1.396094203e+00, -1.074594259e+00, 2.701251507e-01, 
            9.151584655e-02, 2.251956761e-01, 3.796279728e-01, 
            1.691624522e-02, -5.782961249e-01, -3.761153221e-01, 
            2.975388169e-01, 1.499920785e-01, 8.508592844e-02, 
            -3.441022933e-01, 3.515982255e-02, -1.986057609e-01, 
            -6.785916686e-01, 3.743875325e-01, 3.076160550e-01, 
            2.842788696e-01, -1.279185265e-01, 4.221434239e-03, 
            2.112542391e-01},
        {2.608464062e-01, -3.721331954e-01, 3.148254752e-01, 
            3.305044770e-01, -8.420690894e-01, -1.314161777e+00, 
            2.460986078e-01, -2.333083004e-01, 2.270696610e-01, 
            5.374597386e-02, -6.160003133e-03, -6.504828334e-01, 
            -2.843361814e-03, -6.691958308e-01, 1.460286826e-01, 
            -8.036937118e-01, 1.768551953e-02, -3.927627578e-02, 
            2.500340939e-01, -5.805701613e-01, -7.951409817e-01, 
            3.496363759e-01, 2.653920352e-01, 2.602227330e-01, 
            -8.785251975e-01, -4.126807749e-01, -3.749879599e-01, 
            1.461010128e-01, -5.787749887e-01, 5.990840197e-01, 
            1.486004442e-01, 5.177676082e-01, -1.054774880e+00, 
            8.041536063e-02, 2.301173806e-01, 2.750233710e-01, 
            4.444454908e-01, -3.311171234e-01, -2.730526626e-01, 
            -4.691736028e-02, 1.447589695e-01, -2.629743516e-01, 
            -3.298539296e-02, -9.609428048e-02, -5.694271326e-01, 
            -3.488117456e-01, 1.235418916e+00, 2.094331682e-01, 
            -2.995712869e-02, -4.560648501e-01, -6.729208231e-01, 
            -8.974824548e-01, 4.028043747e-01, 5.838362128e-02, 
            -5.775443912e-01, -2.545665801e-01, 9.138076007e-02, 
            2.929891832e-02, 5.862083435e-01, -7.926604152e-01, 
            -3.336234987e-01, -9.525719881e-01, 8.352870345e-01, 
            2.381329089e-01, -8.978857659e-03, -2.416772097e-01, 
            3.311005533e-01, -4.115863740e-01, 3.044432402e-01, 
            -7.366818190e-02, -5.433900952e-01, 4.795135856e-01, 
            -1.917670853e-02, 2.558866143e-01, 5.070789903e-02, 
            -1.398353875e-01, -1.430350393e-01, 6.895149350e-01, 
            -6.992292404e-01, -1.648125350e-01, 6.147454381e-01, 
            3.935517669e-01, -5.189895630e-01, -8.983054012e-02, 
            9.099627137e-01, -1.128677249e+00, -1.414695978e-01, 
            4.298753738e-01, 1.164073125e-01, -2.531212866e-01, 
            5.689488649e-01, 2.894505262e-01, -2.787874080e-03, 
            -1.077953815e+00, -1.829435378e-01, -2.017222941e-01, 
            1.740729958e-01, -5.622367561e-02, 2.998457253e-01, 
            3.068781197e-01},
        {-6.791880727e-02, 3.184057772e-01, 5.513253212e-01, 
            -3.559625745e-01, 5.291384459e-01, 1.047336936e+00, 
            -1.875946075e-01, 6.863161176e-02, -7.174421847e-02, 
            5.130789876e-01, 4.690322876e-01, 4.152217209e-01, 
            -5.244507194e-01, 1.739031449e-02, 5.524678230e-01, 
            1.305652708e-01, -1.790649146e-01, 2.613551319e-01, 
            -6.268954873e-01, 1.935524791e-01, -6.001051888e-02, 
            -4.107810557e-03, 7.587050647e-02, -1.474032551e-01, 
            1.856780350e-01, -2.342697233e-01, -6.807223558e-01, 
            5.489744544e-01, -3.207859099e-01, -9.726659656e-01, 
            -1.734642386e-01, 7.558823824e-01, -6.804674119e-02, 
            -2.138613164e-01, 1.597169638e+00, 1.258881986e-01, 
            7.583986223e-02, 1.139433160e-01, -2.453150414e-02, 
            4.210494161e-01, -4.224854708e-01, -5.249173045e-01, 
            -1.622405648e-01, -5.873892307e-01, 3.381788731e-01, 
            -3.472447991e-01, 1.345038414e-01, 2.095213383e-01, 
            6.354382634e-01, -7.622477412e-01, -2.321196347e-01, 
            3.457604349e-01, -9.686696343e-03, -2.027884275e-01, 
            -1.797143519e-01, 1.865492314e-01, -1.459861845e-01, 
            -1.242225915e-01, -3.205230832e-01, -3.969247639e-01, 
            7.764372826e-01, 1.706059456e+00, 7.731083781e-02, 
            9.507361799e-02, -3.189614415e-01, 5.119626969e-02, 
            -2.181930654e-02, -7.245604396e-01, 3.301174045e-01, 
            -4.148596153e-02, 6.769183874e-01, 6.922139972e-02, 
            2.798776329e-01, 5.720879417e-03, -3.551202714e-01, 
            -5.992408991e-01, 3.014228940e-01, 1.088812053e-01, 
            -3.329856694e-02, 5.058852434e-01, -3.546516299e-01, 
            3.571570516e-01, 8.153245598e-02, -6.966409087e-02, 
            -1.621541530e-01, 6.095745787e-02, 1.685497314e-01, 
            1.960745268e-02, -5.394443870e-01, 2.703281641e-01, 
            -3.352253512e-02, -3.687487543e-01, -1.834494919e-01, 
            -2.275915295e-01, -6.211713552e-01, 2.965458930e-01, 
            3.824163228e-02, -6.708884835e-01, 3.049820364e-01, 
            -4.639934897e-01},
        {-2.400409728e-01, -3.793647885e-02, -1.351716071e-01, 
            2.483439893e-01, 8.858411573e-03, -3.867421150e-01, 
            -1.890573740e+00, -2.051675081e+00, 8.053105474e-01, 
            4.256177843e-01, -7.805162072e-01, -2.086330652e+00, 
            -8.336144090e-01, -4.940874279e-01, -4.582674205e-01, 
            -4.668851383e-03, -1.715592146e-01, -1.258504689e-01, 
            -4.829231799e-01, 2.848094106e-01, -1.605202854e-01, 
            -4.319990575e-01, -2.970792949e-01, -1.528168201e+00, 
            -1.223648787e+00, -1.351050474e-02, -2.555141449e-01, 
            -9.333575517e-02, -6.574020535e-02, 6.474520564e-01, 
            -9.482587874e-02, 6.328805536e-02, 3.936347663e-01, 
            -1.518285990e+00, -1.285840392e+00, -3.110326827e-01, 
            -2.256181955e+00, -1.476861715e+00, 5.168370008e-01, 
            6.247006059e-01, -3.020082600e-02, -3.813954592e-01, 
            1.681872457e-01, 6.080443412e-02, -4.516884387e-01, 
            -2.207566500e+00, -3.665215492e+00, 3.447361290e-01, 
            1.914962232e-01, -9.120732546e-03, -1.339140534e+00, 
            4.112094641e-01, -7.153258324e-01, 5.286515951e-01, 
            2.255456448e-01, -1.488459229e+00, 6.772678345e-02, 
            -1.202314273e-01, -1.564758658e+00, 1.019801199e-01, 
            5.715801567e-02, -3.166427314e-01, 1.479524188e-02, 
            1.548290402e-01, 4.637381434e-01, 5.376048088e-01, 
            -2.000711262e-01, -1.187314391e+00, -3.885654360e-02, 
            -1.421828508e+00, -1.105051301e-02, -5.126754642e-01, 
            -5.170726217e-03, -2.055938721e+00, -5.636868477e-01, 
            6.238709390e-02, 2.301528692e+00, -2.400129288e-01, 
            -6.198728681e-01, -8.370063454e-02, -1.602788925e+00, 
            -2.947518826e-01, 3.842567503e-01, -2.099387497e-01, 
            -4.632239819e+00, -4.175848886e-02, 4.551523626e-01, 
            -4.647983611e-01, -6.471973062e-01, 5.010691881e-01, 
            1.146544099e+00, 2.432100624e-01, -1.172384858e+00, 
            6.383352280e-01, -5.044070482e-01, 2.003050297e-01, 
            1.838218570e-01, -4.741217494e-01, 1.752874404e-01, 
            -2.529417038e+00},
        {-6.870082617e-01, 1.284631938e-01, -2.651039958e-01, 
            6.598882079e-01, -1.803421974e-01, 5.847991109e-01, 
            -5.831779242e-01, -1.531641781e-01, 2.862672508e-01, 
            3.249613941e-02, -1.827242374e+00, -1.145413984e-02, 
            -1.995000958e+00, 5.526487157e-02, -2.922950089e-01, 
            6.374991536e-01, 2.849785686e-01, 1.620933861e-01, 
            -4.699241817e-01, 3.963840008e-01, 6.834551096e-01, 
            -1.170503378e+00, -6.444941163e-01, -5.985078812e-01, 
            -6.529875398e-01, 2.932751477e-01, -1.046532750e+00, 
            -1.862883754e-02, -4.395553172e-01, -5.799584985e-01, 
            -2.495428771e-01, 2.681971788e-01, 2.285933793e-01, 
            -2.685407363e-02, -5.757679343e-01, -2.478892682e-03, 
            -2.742083371e-01, -2.160507590e-01, -1.872236133e-01, 
            3.074351847e-01, 3.411650360e-01, -4.736099765e-02, 
            2.890022099e-01, -1.171763912e-01, -3.167732954e-01, 
            3.083972335e-01, 2.788118124e-01, 1.671064943e-01, 
            4.415182397e-02, -2.599317133e-01, -2.145830095e-01, 
            5.769332051e-01, 3.116432726e-01, -7.653800845e-01, 
            -1.403289437e-01, -1.091065168e+00, -7.342010736e-01, 
            -8.402617276e-02, 7.165842503e-02, 9.315675497e-02, 
            4.977869689e-01, 1.525742888e+00, 1.200794578e+00, 
            -1.007963896e+00, 2.173461616e-01, -5.481641889e-01, 
            -8.121121526e-01, -4.031429812e-02, -1.856295466e-01, 
            -1.029303670e+00, 1.248789802e-01, -4.594325721e-01, 
            -3.958467245e-01, -1.142108321e+00, 1.012253538e-01, 
            -1.595633030e+00, -7.721341848e-01, 4.027304426e-02, 
            -1.004824787e-01, 9.440585971e-01, -9.510887414e-02, 
            2.488900870e-01, -3.670279980e-01, 1.454178810e+00, 
            -1.645743102e-01, -5.790111423e-01, 3.833685815e-01, 
            1.397013068e-01, 2.614575028e-01, 2.068529129e-01, 
            1.504045874e-01, 6.129540205e-01, -6.820399761e-01, 
            9.622287154e-01, -4.794574156e-02, 3.557130694e-01, 
            -1.078915447e-01, 5.424279347e-02, 6.400557160e-01, 
            -2.457414120e-01},
        {5.021703243e-01, -1.270885020e-01, -3.821028769e-01, 
            -1.341779828e-01, -8.101002574e-01, 8.394617438e-01, 
            -6.724272668e-02, 1.993255168e-01, -2.337845229e-02, 
            -1.442845762e-01, -8.479443789e-01, -1.252840608e-01, 
            5.959417298e-02, 5.291918516e-01, -2.456732243e-01, 
            3.023568094e-01, 2.444661558e-01, -2.278010994e-01, 
            3.812675774e-01, -1.680933237e-01, 2.835974693e-01, 
            -1.388722956e-01, -3.472414315e-01, -9.211466312e-01, 
            -3.250875175e-01, 1.647621244e-01, 2.685223222e-01, 
            -5.340055823e-01, -8.399870992e-01, 2.894153297e-01, 
            -1.370125413e-01, 5.227200985e-01, 1.944109499e-01, 
            2.832159102e-01, -3.989458382e-01, 2.984411716e-01, 
            -7.106378675e-01, -6.243758202e-01, -8.809122443e-01, 
            -4.607211351e-01, 1.013253182e-01, 7.947187424e-01, 
            9.479801357e-02, 2.043082416e-01, -7.372649312e-01, 
            -2.852828801e-01, 5.743538141e-01, -4.297151864e-01, 
            -2.662879825e-01, -3.295336962e-01, 4.197445810e-01, 
            -6.574776769e-02, -5.613734722e-01, -7.361513972e-01, 
            1.351066381e-01, -5.002444386e-01, 4.112238288e-01, 
            -1.272503138e-01, -3.463982046e-01, 7.391484380e-01, 
            3.200563788e-01, -1.360666100e-02, -1.794243604e-01, 
            -2.545598149e-01, 5.071793199e-01, -2.927811742e-01, 
            -1.409314722e-01, -5.547112823e-01, -1.049889326e-01, 
            -5.047901273e-01, -2.775160968e-01, 2.743123099e-02, 
            -7.847393751e-01, -2.075772434e-01, 1.031498462e-01, 
            3.236939386e-02, -7.465966344e-01, 1.165722832e-01, 
            -1.366461515e+00, -4.314609170e-01, -4.619199038e-02, 
            -3.483195230e-02, 4.839793146e-01, -6.325924397e-02, 
            1.253915429e-01, -4.732498527e-01, 1.084656641e-02, 
            4.013235569e-01, -6.407403946e-01, 6.773182750e-02, 
            2.742704749e-01, 7.487196475e-02, 4.263484776e-01, 
            -2.407866567e-01, 4.669295549e-01, 3.805091977e-01, 
            3.741535544e-01, -1.826885194e-01, 1.545761824e-01, 
            -5.718545243e-02},
        {-5.574939251e-01, -5.702928901e-01, 9.640725851e-01, 
            1.203462034e-01, -5.744805336e-01, 1.230985403e+00, 
            4.478092492e-02, 2.237219810e-01, 8.705965430e-02, 
            -1.240405798e+00, 3.371632397e-01, 2.069258988e-01, 
            -8.727080226e-01, -4.451063275e-01, 1.357957274e-01, 
            -3.495874405e-01, 1.989966184e-01, -9.972391278e-02, 
            2.582893074e-01, -3.163547516e-01, 2.763910890e-01, 
            -5.595556647e-02, -1.286338922e-02, 4.009045064e-01, 
            -8.800835013e-01, -8.634729385e-01, -7.721498609e-01, 
            -2.855812907e-01, -3.448131382e-01, 3.147515357e-01, 
            8.961243629e-01, -3.873644471e-01, -2.426609516e+00, 
            -1.279597878e-01, -2.306938171e-01, 2.360491753e-01, 
            -2.624393255e-02, 4.989546165e-02, -2.523162663e-01, 
            -3.224934638e-01, 5.035547614e-01, 6.116637588e-01, 
            -3.600829542e-01, 4.246730804e-01, -3.040077090e-01, 
            3.825769126e-01, 1.446474195e-01, 8.428500295e-01, 
            -8.816317916e-01, 3.871799707e-01, 2.767356038e-01, 
            -3.870221078e-01, 9.193195701e-01, -2.324826866e-01, 
            -3.821914494e-01, -8.244397044e-01, 5.899234489e-02, 
            2.123985440e-01, 2.461517304e-01, -4.259536564e-01, 
            -9.768304229e-01, -1.337299705e+00, -4.570080936e-01, 
            2.296078354e-01, 2.264973074e-01, -2.968763709e-01, 
            2.909371257e-01, 1.500627249e-01, 1.078454971e+00, 
            1.226345062e+00, -7.376746535e-01, -4.330400229e-01, 
            -6.270454526e-01, 1.423121244e-01, 3.483068049e-01, 
            8.831008524e-02, -5.854230523e-01, 1.978161931e-01, 
            -4.418429732e-01, -4.031101242e-02, 3.977399766e-01, 
            -5.712464824e-02, 3.978597820e-01, -1.963323206e-01, 
            4.406657536e-03, 1.353728026e-01, -1.213237762e+00, 
            -1.056742430e+00, 2.480210513e-01, -6.963135004e-01, 
            3.549597263e-01, 1.913810223e-01, -5.526832342e-01, 
            -2.708393812e+00, 4.404614568e-01, -2.584504783e-01, 
            1.684389114e-01, 6.639415026e-01, 5.516377687e-01, 
            1.576160491e-01},
        {6.017187238e-02, -9.887478501e-02, 1.131743938e-01, 
            1.254652888e-01, 4.273388535e-03, -1.816029400e-01, 
            1.359264255e-01, 1.490203291e-01, 1.194937974e-01, 
            -2.149997745e-04, -4.270815849e-02, 2.264376357e-02, 
            -8.606521040e-02, -5.723908544e-02, -4.935273435e-03, 
            -2.917185053e-02, -1.572485454e-02, -1.250978112e-01, 
            -6.544183195e-02, 4.547591507e-02, -2.681912296e-02, 
            1.103276610e-01, -1.124202758e-01, -4.003345221e-02, 
            -1.422902495e-01, -3.847156093e-02, -1.227298230e-01, 
            -1.649871022e-01, 4.607999697e-02, 1.293016970e-01, 
            -8.374945074e-02, -1.373226196e-01, -3.326727077e-02, 
            -9.330962598e-02, -9.443391860e-02, 4.033337533e-02, 
            1.267359257e-01, -5.912734941e-02, -5.962647498e-02, 
            5.808642600e-03, -1.358148307e-01, 1.333934516e-01, 
            -4.874506593e-02, -1.218966469e-01, -1.960830390e-01, 
            -1.774728000e-01, 8.760370314e-02, -1.959402412e-01, 
            -1.652819961e-01, -1.319454331e-02, -2.056964040e-01, 
            1.006375700e-01, -4.823764041e-02, -1.522752494e-01, 
            -1.790966690e-01, -1.943719685e-01, -6.759074330e-02, 
            -3.253610060e-02, 9.945278615e-02, -8.403322846e-02, 
            -1.334419250e-01, 1.658742316e-02, 1.478255242e-01, 
            -2.265773527e-02, 6.183757260e-02, -3.401456773e-02, 
            1.319094449e-01, 1.193558350e-01, -3.750771657e-02, 
            -3.742287681e-02, 1.807900891e-02, -1.572657526e-01, 
            1.832410134e-02, 1.279274970e-01, -8.293309063e-02, 
            -1.587628424e-01, 1.794510335e-02, -1.445861608e-01, 
            -1.439993232e-01, -1.042066887e-01, -2.068482488e-01, 
            1.371903867e-01, 7.600038499e-02, -1.920200139e-02, 
            -9.876372665e-02, -5.111117288e-02, -5.127948895e-02, 
            -5.839012563e-02, -1.598507613e-01, 3.523978963e-02, 
            1.405473799e-01, 9.176494554e-03, 1.465066671e-01, 
            -4.255593289e-03, -1.793400496e-01, -5.208699405e-02, 
            -1.880199760e-01, 1.766645163e-02, 7.517778873e-02, 
            -2.044623941e-01},
        {-5.745325610e-02, -5.427711606e-01, 3.597016335e-01, 
            -1.099538803e+00, -2.609069347e-01, -9.439752102e-01, 
            6.950760633e-02, 5.592358112e-01, 7.166720033e-01, 
            -4.495800287e-02, 8.331313729e-01, -7.865356803e-01, 
            3.961947262e-01, 6.654112935e-01, 3.676256835e-01, 
            -9.614199400e-02, -8.705472350e-01, -5.269017443e-02, 
            1.655595154e-01, -4.928666949e-01, 4.721505642e-01, 
            -3.354515135e-01, -7.060479373e-02, 7.455466390e-01, 
            5.034332871e-01, -1.270158768e+00, -4.460753202e-01, 
            9.985416383e-02, -2.237285078e-01, 1.261193007e-01, 
            -3.004862666e-01, 1.117010191e-01, -1.027544856e+00, 
            -8.863386512e-02, 9.355514050e-01, 4.085954428e-01, 
            -7.652426958e-01, 4.629151896e-02, -8.098325133e-02, 
            2.202183157e-01, -5.487655103e-02, 8.382368088e-02, 
            9.726577252e-02, -5.243299603e-01, 4.421648569e-03, 
            4.565102756e-01, 1.824237108e-01, -5.071578026e-01, 
            2.219928801e-02, -3.305740952e-01, 3.532854617e-01, 
            -3.453974128e-01, 4.252341986e-01, 7.302568853e-02, 
            -1.899294704e-01, -1.216769218e+00, 1.474474818e-01, 
            -5.208827257e-01, 1.302348375e-01, -6.933856010e-01, 
            -1.763319075e-01, -5.148152709e-01, 5.243878961e-01, 
            -4.784721434e-01, 6.611946225e-02, -3.779775798e-01, 
            1.201148704e-02, 1.548202783e-01, 2.711868882e-01, 
            1.685712934e-01, -1.479262829e+00, 7.642492056e-01, 
            1.174908504e-01, 1.231607199e+00, 4.986754358e-01, 
            -5.240109563e-01, -3.211050034e-01, 2.902831323e-02, 
            -2.291381061e-01, 7.219825685e-02, -2.104109824e-01, 
            1.989966929e-01, -8.587151766e-02, -4.393452704e-01, 
            2.291349471e-01, -1.262393355e+00, 1.763099432e-01, 
            -7.169879973e-02, 5.462251306e-01, -4.080896676e-01, 
            2.691670656e-01, -5.967801809e-01, -2.516375184e-01, 
            -1.319185019e+00, -2.535557151e-01, -4.040278494e-01, 
            2.462090254e-01, 5.976480842e-01, -1.720751822e-01, 
            6.985221803e-02},
        {2.759868205e-01, 2.331257053e-02, 1.748563647e-01, 
            4.664686322e-01, -2.015884072e-01, -1.539658308e+00, 
            4.708245695e-01, -4.198037684e-01, -1.938751340e-01, 
            -8.422702551e-02, -2.033927739e-01, -1.094086051e+00, 
            1.138161644e-01, -1.010250330e+00, -3.932099342e-01, 
            -3.593067527e-01, -8.440201730e-02, 4.061440751e-02, 
            -3.049730062e-01, 7.755550742e-02, -9.292270243e-02, 
            -9.827043116e-02, 4.899021089e-01, 2.528175116e-01, 
            -2.160682082e-01, -3.712052421e-04, 4.959705174e-01, 
            2.687887549e-01, 3.940635026e-01, -9.163252711e-01, 
            2.054897100e-01, -5.769762397e-01, -1.810275763e-01, 
            8.175120503e-02, 1.574745774e-01, -1.860343963e-01, 
            2.650854886e-01, -3.398230672e-01, 1.634382159e-01, 
            -2.168463767e-01, -1.829115897e-01, 7.515137643e-02, 
            2.014662176e-01, -7.879178156e-05, -4.017344117e-01, 
            1.961967796e-01, -5.452711135e-02, -4.689754248e-01, 
            3.313404322e-01, 1.277517974e-01, 2.524355054e-01, 
            -1.003392600e-02, -3.341599703e-01, 4.873935133e-02, 
            2.985843420e-01, 3.639297187e-01, -1.034765124e+00, 
            -7.729005218e-01, 4.583846331e-01, 5.673919320e-01, 
            -4.291122258e-01, 5.883083344e-01, -3.335520625e-01, 
            -7.891020775e-01, -9.081835300e-02, -6.116537452e-01, 
            2.587138116e-01, 1.677032709e-01, -6.239632964e-01, 
            -9.697087109e-02, -4.091686308e-01, -6.959842443e-01, 
            3.494625390e-01, -2.816169262e-01, -4.091538489e-01, 
            1.387837715e-02, -1.547497362e-01, 9.704221040e-03, 
            3.446912169e-01, 1.564384699e-01, 4.272177517e-01, 
            -1.695163697e-01, -2.639577091e-01, -3.773579299e-01, 
            5.524419993e-02, 4.207160175e-01, -1.554108709e-01, 
            4.275281131e-01, 6.001304984e-01, -1.471069008e-01, 
            3.070704937e-01, 9.194293618e-02, 2.559446990e-01, 
            1.887550354e-01, -7.061520964e-02, -9.951005578e-01, 
            -2.268188149e-01, -1.528326273e-01, -1.910497695e-01, 
            5.302445292e-01},
        {2.852473557e-01, -1.794223636e-01, -7.643274665e-01, 
            -4.877522886e-01, -5.534864664e-01, 8.990730345e-02, 
            -1.430336665e-02, -4.864298105e-01, 6.488654613e-01, 
            8.374521136e-01, -3.936169147e-01, -4.554191828e-01, 
            1.124273166e-01, -7.096559405e-01, -2.336573452e-01, 
            2.705649436e-01, 2.569926381e-01, 8.472234756e-02, 
            1.698887646e-01, -7.565336674e-02, -2.326044559e+00, 
            -4.911694527e-01, 8.460254222e-02, -3.951197863e-01, 
            -1.455944125e-02, 1.560352296e-01, 5.041094422e-01, 
            5.236550570e-01, -2.515605986e-01, 8.972967863e-01, 
            -3.322800100e-01, -2.249040902e-01, 2.847968340e-01, 
            6.323080510e-02, 1.657356381e+00, 2.442056835e-01, 
            -5.097849667e-02, -9.917867780e-01, 1.798900515e-01, 
            -4.527781159e-03, 2.510586381e-01, -1.381612271e-01, 
            4.376287013e-02, -6.346845627e-01, 1.494523287e-01, 
            -4.835478663e-01, -8.946958184e-01, -7.333597541e-01, 
            2.231382430e-01, -1.512803435e-01, -1.671927273e-01, 
            -7.505855560e-01, 6.648433208e-01, -2.508137524e-01, 
            -3.800470233e-01, -3.769354224e-01, -6.584720016e-01, 
            -4.043875039e-01, -5.457001925e-01, 4.772957265e-01, 
            3.272048533e-01, 4.023825228e-01, 7.038795948e-01, 
            -1.018513918e+00, 1.240104884e-01, 2.439713329e-01, 
            9.693308473e-01, -1.683688313e-01, 8.067664504e-02, 
            -5.976078510e-01, -4.301644266e-01, 1.209221840e+00, 
            1.829540730e-01, -2.249159366e-01, -3.318121433e-01, 
            -3.241595626e-01, 9.387996793e-01, -1.237528682e+00, 
            -6.644318700e-01, -5.377946496e-01, -6.771507263e-01, 
            6.395456791e-01, 4.544442594e-01, 7.181625068e-02, 
            3.064246178e-01, 3.588123620e-01, 5.069845319e-01, 
            -8.113294244e-01, 4.859263897e-01, -2.413735837e-01, 
            5.918505192e-01, 1.711576432e-01, 4.656484723e-01, 
            2.735311389e-01, 2.977189124e-01, -2.535361946e-01, 
            1.646803916e-01, 7.773652673e-03, 1.067909241e+00, 
            1.133216321e-01},
        {-1.387190968e-01, -1.148705840e+00, 5.412489176e-01, 
            -2.602029741e-01, -2.956919968e-01, 1.262830645e-01, 
            3.011229932e-01, 4.924190640e-01, 7.345608622e-02, 
            -5.120578781e-02, -1.125817537e+00, 3.375605643e-01, 
            5.167525262e-02, 3.697090745e-01, 5.543092489e-01, 
            -5.723465234e-02, 4.937480688e-01, 2.710223012e-02, 
            -2.064502984e-01, -7.929518819e-02, -2.947346568e-01, 
            4.344901145e-01, 8.257204294e-02, -1.236738637e-01, 
            -8.578356355e-02, -5.377239585e-01, 3.480344117e-01, 
            -2.513288558e-01, -3.130424321e-01, -1.979308128e-01, 
            8.620685339e-01, -2.175485343e-01, -1.094888926e+00, 
            1.364001334e-01, -2.720430866e-02, -9.872568846e-01, 
            -5.462265015e-01, -5.258086324e-02, -2.914945185e-01, 
            1.038856898e-02, 2.431460172e-01, -3.698483855e-02, 
            -3.827509880e-01, -4.620406628e-01, 1.782838106e-01, 
            -1.100838836e-02, 9.425851107e-01, 1.903612763e-01, 
            4.621312767e-02, -4.211743474e-01, 1.981128603e-01, 
            -8.563050628e-01, -2.034818828e-01, -2.570390105e-01, 
            -2.011656612e-01, 1.223707721e-01, 7.021884918e-01, 
            5.249727517e-02, -3.500611186e-01, -8.445653319e-01, 
            -3.165334165e-01, -1.120663524e+00, -4.229673445e-01, 
            2.915021181e-01, 2.042107433e-01, -2.222524434e-01, 
            2.649631202e-01, -2.929155529e-01, 5.663214922e-01, 
            9.349943399e-01, 2.816686928e-01, -1.928529143e-01, 
            -1.006561238e-02, 1.682735421e-02, 2.359986864e-02, 
            -2.270884067e-02, -2.519173324e-01, 3.264203370e-01, 
            -7.340168953e-01, -5.096645951e-01, 7.612717897e-02, 
            2.128574848e-01, -1.489631981e-01, 6.302475929e-02, 
            -2.084929794e-01, -7.189411521e-01, 2.154508680e-01, 
            1.736856103e-01, -1.755048335e-01, 4.464625120e-01, 
            3.963398933e-01, -2.524256408e-01, 5.890934914e-02, 
            -1.323117018e+00, 4.963369668e-02, -2.570208609e-01, 
            5.531091094e-01, 5.305512547e-01, -6.549430490e-01, 
            -3.498439491e-01},
        {-1.455869973e-01, 2.859212458e-01, -3.921583891e-01, 
            -4.359022975e-01, 3.044951856e-01, 7.070682198e-02, 
            -1.072418690e-01, 2.637804747e-01, 1.831935346e-01, 
            8.509576321e-02, 2.325963974e-01, 4.064751044e-02, 
            1.581929028e-01, -1.912398040e-01, -2.597256564e-02, 
            -9.065180272e-02, 2.605987946e-03, -5.146493316e-01, 
            3.193723857e-01, -1.660383940e-01, 2.801734209e-02, 
            3.801612556e-01, -3.855212629e-01, -4.291641116e-01, 
            4.540653825e-01, 3.697943985e-01, -4.091721475e-01, 
            -3.803893328e-01, 3.096550144e-02, -4.193562642e-02, 
            -3.094953001e-01, -5.316714644e-01, 3.833781481e-01, 
            -3.508783281e-01, 1.291366696e+00, -7.779916376e-02, 
            5.369300842e-01, -4.294159636e-02, 8.515207171e-01, 
            -2.444927543e-01, 2.836997211e-01, 1.551338136e-01, 
            -1.482688487e-01, -5.150552392e-01, -6.982886791e-02, 
            6.954262406e-02, -4.591935128e-02, 2.919164598e-01, 
            -1.193605810e-01, 2.705517411e-01, -1.472415179e-01, 
            2.433015108e-01, 2.300675154e+00, -7.574569583e-01, 
            8.286258578e-02, -3.169017434e-01, -1.385389090e+00, 
            1.712022275e-01, -5.112757534e-02, -2.507373095e-01, 
            -1.468270868e-01, 4.718032479e-01, 3.069387674e-01, 
            -2.625600807e-02, 4.539599121e-01, 3.194456398e-01, 
            3.913275599e-01, -5.953672528e-01, -4.090601206e-01, 
            -6.933352351e-01, 2.325194143e-02, 2.724663615e-01, 
            -3.454540372e-01, 5.930725113e-02, 4.215896130e-01, 
            -3.517839015e-01, 2.533990145e-01, 2.767622471e-01, 
            6.909993291e-02, -2.008462399e-01, -9.381839633e-02, 
            2.344485223e-01, 5.318462253e-01, 1.557632387e-01, 
            2.779641449e-01, -7.407023013e-02, -1.811567694e-01, 
            4.075694084e-01, -1.710648239e-01, 4.596202075e-02, 
            -3.070723116e-01, -2.453537881e-01, -1.489135176e-01, 
            1.170867309e-01, 4.914713502e-01, -5.196166411e-02, 
            -2.724188268e-01, -8.118057996e-02, 4.689210653e-01, 
            1.365876347e-01},
        {-5.997976065e-01, 1.940094084e-01, -6.228919625e-01, 
            3.452258706e-01, -7.910597324e-02, 1.657689214e-01, 
            4.471236467e-01, -4.074467719e-01, -6.060822606e-01, 
            4.700730145e-01, -2.133686692e-01, -5.602680147e-03, 
            -1.517954171e-01, 1.209083498e-01, -3.190772831e-01, 
            -3.494895399e-01, 7.593687773e-01, 2.887806110e-02, 
            1.550619602e-01, -2.775860764e-02, 7.991342992e-02, 
            -1.678986475e-02, 4.392608702e-01, 5.591615103e-03, 
            -3.777079284e-01, 5.823754072e-01, -9.872342926e-04, 
            2.305541039e-01, -2.670615435e+00, -1.653435677e-01, 
            3.566734493e-01, -1.642730683e-01, 5.917367339e-01, 
            -4.064117968e-01, 4.644511938e-01, 3.822698072e-02, 
            3.253534436e-01, -3.427156806e-01, -6.029251218e-02, 
            -1.281142384e-01, 5.354014635e-01, -5.941969156e-01, 
            3.312985301e-01, -6.189186573e-01, -6.134168506e-01, 
            1.854145378e-01, -1.884620450e-02, 1.139556289e+00, 
            -4.654103816e-01, 7.735189795e-02, -1.560144275e-01, 
            4.515403509e-01, 1.390272677e-01, 2.587133348e-01, 
            -1.355622411e-01, -4.163100421e-01, 2.451757491e-01, 
            -2.647531033e-02, 1.362248063e-01, -1.524854451e-01, 
            2.959325612e-01, -6.302524805e-01, -4.428509176e-01, 
            -1.560769230e-01, -6.194998622e-01, 1.104722917e-01, 
            -1.567615122e-01, -5.851332471e-02, -3.308307827e-01, 
            -2.214627713e-01, -1.697476357e-01, -6.700455546e-01, 
            -7.083340734e-02, -9.976831824e-02, -8.808618188e-01, 
            2.978151664e-02, -2.549263239e-01, 2.877433896e-01, 
            -1.099629760e+00, -4.322805703e-01, 5.159118772e-01, 
            2.953632772e-01, 4.712471366e-02, 4.434368387e-02, 
            1.634138823e-01, -7.886710167e-01, -1.320745111e+00, 
            3.484516442e-01, -1.771084517e-01, -1.534085274e-01, 
            2.415280640e-01, 7.135153413e-01, -6.424387693e-01, 
            2.592572272e-01, -3.280943930e-01, 5.072089434e-01, 
            -2.363221794e-01, 3.661441505e-01, -1.546669099e-02, 
            2.213861048e-01},
        {1.324816197e-01, 5.969513208e-02, -1.533336788e-01, 
            1.928201914e-01, -7.646480948e-02, -2.968402505e-01, 
            2.116684765e-01, 1.313191056e-01, 5.397735238e-01, 
            -3.084854484e-01, -4.685804248e-01, -3.260729089e-02, 
            -1.052151844e-01, -1.737328619e-01, 5.379864573e-01, 
            -6.443441659e-02, 1.266903728e-01, 6.161070466e-01, 
            -2.244368494e-01, 3.725021183e-01, -1.833547093e-02, 
            2.086827159e-02, 3.764095604e-01, 1.971796751e-01, 
            -4.843828082e-01, 1.666757911e-01, 3.668909669e-01, 
            -1.318472344e-02, -3.247456253e-01, -1.069622487e-01, 
            -1.220902503e-01, 3.546163738e-01, 9.589571506e-02, 
            -3.971183598e-01, 3.985819817e-01, 2.007990330e-01, 
            -2.337093800e-01, -1.219742894e-01, 5.087392405e-02, 
            5.717565417e-01, 9.176713228e-02, -1.048463210e-01, 
            3.495658338e-01, 3.592740893e-01, 4.233203083e-02, 
            -2.097332925e-01, 4.702385068e-01, -5.067151785e-01, 
            6.681569219e-01, 4.060330093e-01, -2.720273137e-01, 
            -3.039519191e-01, -3.143663704e-01, 6.478328705e-01, 
            -9.195318818e-02, 1.351253092e-01, -6.101372242e-01, 
            -1.895404905e-01, 1.235409230e-01, 4.802914858e-01, 
            -1.499084979e-01, 4.253876805e-01, -3.406027257e-01, 
            -2.217155695e-02, -3.826603591e-01, -3.341688216e-01, 
            -5.017842650e-01, 4.040532112e-01, 2.460112721e-01, 
            -8.331953734e-02, -2.044969499e-01, 1.809198409e-01, 
            3.789353371e-01, 1.729707569e-01, 1.002177075e-01, 
            -3.411610052e-02, 1.225230750e-02, 5.185648203e-01, 
            -1.830899119e-01, -1.267784834e-01, -1.494836807e-01, 
            3.042906225e-01, 1.266916841e-01, -1.592699587e-01, 
            -3.727585971e-01, -4.303775430e-01, 5.269734189e-02, 
            -1.357528269e-01, 3.151297569e-01, -6.638433784e-02, 
            7.430399954e-02, 1.852672733e-02, -6.880196184e-02, 
            -2.267009914e-01, 3.208371401e-01, -4.944907874e-02, 
            1.065878272e-01, -4.310733676e-01, 9.322590828e-01, 
            -8.623338491e-02},
        {5.241878703e-02, -2.057683319e-01, -2.047611624e-01, 
            -3.563802838e-01, -3.489029109e-01, 5.036797523e-01, 
            -9.982141107e-02, 7.828418612e-01, -1.836348474e-01, 
            -3.077546954e-01, -2.130440772e-01, -1.390112042e-01, 
            1.544662118e-01, 8.606317639e-02, 2.804513872e-01, 
            2.781255245e-01, 4.311212003e-01, -4.443521500e-01, 
            1.200627565e+00, -1.859314442e-01, 1.412848383e-01, 
            -2.438805401e-01, -1.622131616e-01, 1.941068619e-01, 
            2.052939981e-01, 1.809714586e-01, 1.750591695e-01, 
            -2.482303828e-01, -3.884575367e-01, 2.220381498e-01, 
            -4.433778226e-01, 1.650347561e-01, -5.630156770e-02, 
            3.993986249e-01, 2.963750064e-01, -1.166345105e-01, 
            -1.350526512e-01, -8.886916935e-02, -2.218155116e-01, 
            -4.514842629e-01, -2.528179884e-01, -6.449232996e-02, 
            1.182192266e-01, -3.496541679e-01, -1.154584169e+00, 
            2.260966599e-01, 2.869044840e-01, -2.931137681e-01, 
            5.891153216e-02, -8.144923449e-01, 3.428393602e-01, 
            -1.298448890e-01, 7.783025503e-02, -3.148192167e-01, 
            2.694205046e-01, -1.580170542e-01, 3.727459908e-01, 
            4.398711026e-02, -2.798147500e-01, -1.553049833e-01, 
            -5.160478875e-02, -5.941419601e-01, -3.419763446e-01, 
            -2.429473996e-01, 3.996808529e-01, 1.875974089e-01, 
            -9.577178210e-02, 4.968894124e-01, -4.484011233e-01, 
            -1.356182806e-02, -5.640679598e-01, -5.008002371e-02, 
            -1.750754714e-01, -3.385984898e-01, 1.491684467e-01, 
            1.227735355e-01, -8.458705544e-01, 1.312390268e-01, 
            -2.059483975e-01, 5.415485054e-02, 1.175349951e-01, 
            1.071130335e-01, 6.098206639e-01, -1.380811334e-01, 
            1.816060580e-02, -9.228523374e-01, 5.894771218e-02, 
            4.777096584e-02, -6.240331531e-01, 1.673771888e-01, 
            -6.350629926e-01, -1.359479427e-01, 2.704443038e-01, 
            -3.197242618e-01, 1.485613436e-01, 2.585049868e-01, 
            2.123529166e-01, -9.977852553e-02, -6.051202863e-02, 
            3.961380720e-01},
        {-1.990671754e-01, -7.320065051e-02, 1.572715193e-01, 
            -3.490366638e-01, 8.690281212e-02, 4.125417173e-01, 
            1.970484853e-01, 4.506344497e-01, -9.493088722e-02, 
            -2.585952878e-01, -6.817011237e-01, 2.242440730e-02, 
            7.719236426e-03, 1.700600535e-01, 2.075234056e-01, 
            2.242325991e-01, -1.543814182e+00, -2.813021652e-02, 
            8.038774729e-01, -8.607480526e-01, 3.410826325e-01, 
            7.956451178e-02, -2.934050262e-01, 3.008556962e-01, 
            -6.567597985e-01, -1.607213736e+00, 2.256920785e-01, 
            -3.009882867e-01, 8.303829283e-02, -6.589030623e-01, 
            4.743790627e-01, 8.982417732e-02, -6.865708232e-01, 
            1.649519503e-01, 7.198843956e-01, -4.363031983e-01, 
            2.005079202e-02, 9.946865588e-02, -3.522446752e-01, 
            1.165859029e-02, -2.361693829e-01, 7.964928150e-01, 
            -2.115692645e-01, -3.689312041e-01, -2.409522980e-01, 
            4.785709083e-01, -1.851701736e-01, -2.476804852e-01, 
            -1.211560667e-01, -1.037356019e+00, 4.621890783e-01, 
            -4.266719520e-01, 1.192566529e-01, 4.749924242e-01, 
            2.254499346e-01, -1.794301510e+00, -1.512250900e-01, 
            -2.515426874e-01, -7.705386728e-02, 2.083917409e-01, 
            -1.733999401e-01, -4.287724197e-01, 5.791524649e-01, 
            -1.874210089e-01, -1.561660022e-01, -6.417765617e-01, 
            -9.581179917e-02, 5.369694438e-03, -1.224267855e-01, 
            -1.054603577e+00, -1.489423811e-01, -3.247488737e-01, 
            -3.196898997e-01, 5.397614837e-01, -1.316220760e-01, 
            1.424724907e-01, -2.918133736e-01, -8.213402331e-02, 
            1.140155718e-01, -2.820605934e-01, -5.449894071e-02, 
            9.574935772e-03, -2.201353759e-01, -1.639818996e-01, 
            -1.475353241e-01, 6.483569741e-01, -2.312471569e-01, 
            7.588900626e-02, -4.148811847e-02, -4.078322276e-02, 
            -2.288193256e-01, -3.585679531e-01, 1.668413728e-01, 
            -1.662848741e-01, 3.141176999e-01, -4.387652576e-01, 
            4.278980494e-01, 2.290446311e-01, -3.670515120e-01, 
            -3.735644817e-01},
        {4.360121191e-01, 1.966141760e-01, 5.659924746e-01, 
            -4.644495901e-03, 2.171023488e-01, -3.902391195e-01, 
            1.323924363e-01, -3.909311295e-01, 3.184390068e-02, 
            -8.072338700e-01, -1.249738559e-01, -9.394296259e-02, 
            -2.161543518e-01, 1.130056903e-01, -1.926547438e-01, 
            -1.694819033e-01, -2.014481783e+00, 2.037997395e-01, 
            1.907619648e-02, 3.524801731e-01, 4.369641840e-01, 
            6.083540320e-01, 2.608988285e-01, 8.635947108e-02, 
            -4.140126705e-01, -1.294553280e+00, -5.492527783e-02, 
            -1.214970872e-01, 8.865035772e-01, -1.016384363e-01, 
            3.477374315e-01, -3.802040219e-01, -5.885908604e-01, 
            -3.589512035e-02, 6.106446981e-01, -5.907781124e-01, 
            5.123442411e-01, 1.988790929e-01, -2.216677666e-01, 
            -7.950875163e-01, -5.745766684e-03, -3.404493630e-01, 
            2.304797061e-02, -2.341674715e-01, -2.413448989e-01, 
            2.465974987e-01, -3.893422782e-01, -4.371847212e-01, 
            -4.219907224e-01, 1.060961038e-01, -2.700758576e-01, 
            2.709513605e-01, -3.643799424e-01, 4.081797004e-01, 
            4.647589922e-01, 1.099955440e+00, 4.479308426e-01, 
            -1.768566519e-01, 2.405541204e-02, 1.735789925e-01, 
            -3.395237625e-01, 5.315780640e-01, 2.622188628e-01, 
            -7.544837892e-02, -1.065591127e-01, -6.576553583e-01, 
            3.473127782e-01, -8.128475398e-02, -6.551560760e-01, 
            -1.493413448e-01, -4.418517351e-01, -8.368366361e-01, 
            -4.336185455e-01, 2.945135832e-01, -5.269716978e-01, 
            5.873969793e-01, 4.359141290e-01, 3.908869252e-02, 
            1.749229431e-01, 7.651203871e-01, 2.674886286e-01, 
            -5.681790113e-01, 3.801722229e-01, 1.289180964e-01, 
            1.438288331e+00, 7.649843693e-01, 1.636508703e-01, 
            3.374675661e-02, -2.902303934e-01, -3.858645558e-01, 
            -3.543316424e-01, -1.717468053e-01, -5.170199275e-02, 
            -1.780470461e-01, 5.212133378e-02, -8.117416501e-01, 
            -7.605137825e-01, 3.900103867e-01, -9.441397786e-01, 
            -2.740927041e-02},
        {-3.214825690e-01, 2.473910749e-01, 1.444564581e+00, 
            -3.069110513e-01, 1.893640161e-01, -2.818343341e-01, 
            6.017583609e-02, -5.231966451e-02, 3.408749402e-01, 
            -5.012600422e-01, 1.983059794e-01, -3.836988211e-01, 
            -3.171002269e-01, 4.702356160e-01, -3.829531074e-01, 
            1.055434793e-01, 3.126601875e-01, -4.263713062e-01, 
            3.777491152e-01, -9.126003385e-01, 8.647615314e-01, 
            -8.106866479e-02, 8.149264008e-02, -8.449029922e-01, 
            2.813197374e-01, -2.831289545e-02, -8.123330772e-02, 
            -1.669991203e-02, -6.038159728e-01, 4.138071835e-02, 
            2.426513880e-01, 6.698487699e-02, 1.572163403e-01, 
            -2.444947064e-01, 3.868828714e-01, 7.128653675e-02, 
            2.000201643e-01, -9.144893289e-01, -5.638102889e-01, 
            -5.129210353e-01, 5.142189264e-01, 2.596011758e-01, 
            -4.472532868e-01, 4.386501908e-01, -8.328406215e-01, 
            2.876357138e-01, 1.384918243e-01, -2.534825206e-01, 
            -6.896291971e-01, -3.278593421e-01, 5.504919291e-01, 
            6.099502444e-01, 4.219511747e-01, 4.536122680e-01, 
            -2.635868266e-02, -3.280861676e-01, -1.255249679e-01, 
            2.309111804e-01, -4.048330486e-01, -5.085694790e-01, 
            -1.342497915e-01, -1.185192093e-01, 1.300736368e-01, 
            -1.845890656e-02, 1.521987468e-01, -1.874366403e-01, 
            -3.071898818e-01, -1.633593738e-01, -2.803438604e-01, 
            -1.066316068e-01, -4.554412961e-01, -9.634445310e-01, 
            -7.437913418e-01, 2.701835334e-01, 6.662427783e-01, 
            -2.293276787e-01, -6.293383241e-01, -1.577886492e-01, 
            -6.104510427e-01, 3.338022232e-01, 5.961400643e-02, 
            -2.546201050e-01, 7.507946491e-01, -2.354746908e-01, 
            4.275883138e-01, 4.516767263e-01, -9.555045366e-01, 
            5.373932123e-01, -4.798511565e-01, -9.954800606e-01, 
            5.970058441e-01, 1.181430817e-01, -4.300903380e-01, 
            6.917737424e-02, -1.895421147e-01, 1.082590446e-01, 
            -1.938564144e-02, 5.357265472e-02, -7.420662642e-01, 
            3.243338466e-01},
        {-3.388291001e-01, -1.021399379e+00, -1.448779833e-02, 
            2.234611660e-01, -4.914514124e-01, -2.316969782e-01, 
            -2.938366532e-01, -3.109773993e-01, 4.974334240e-01, 
            -6.473773122e-01, -5.463577509e-01, 7.046257854e-01, 
            -1.332435608e-01, -1.212110966e-01, 8.597425371e-02, 
            -1.408946872e+00, 5.643164515e-01, 3.984191120e-01, 
            -1.996445209e-01, 5.238973498e-01, -1.847154200e-01, 
            -5.621665120e-01, 2.248895764e-01, -3.483833969e-01, 
            1.144387245e+00, 1.656769812e-01, 9.574367851e-02, 
            -1.740091741e-01, -1.902465582e+00, -9.941182733e-01, 
            -9.905201197e-01, 9.348853827e-01, -6.753829122e-01, 
            8.084460348e-02, 7.141257077e-02, 1.694271117e-01, 
            6.803790480e-02, -1.637489200e+00, -1.146545783e-01, 
            1.656738222e-01, -2.205198556e-01, 2.233356088e-01, 
            -1.263964027e-01, 5.539146662e-01, -1.580294669e-01, 
            1.364790797e-01, -7.768058181e-01, -1.032165587e-01, 
            6.106771529e-02, -1.122698188e+00, 2.928473055e-02, 
            -3.820790052e-01, 1.670470387e-01, -1.731356382e-01, 
            4.249083996e-01, -8.121894598e-01, 1.868014932e-01, 
            3.821685314e-01, -2.812323868e-01, -5.511295795e-02, 
            -2.972149849e-01, 1.061162591e+00, 2.192260623e-01, 
            -1.944704950e-01, 1.632785797e-01, 8.247798681e-02, 
            -1.821876764e+00, 6.901036501e-01, 7.904765606e-01, 
            3.678395450e-01, 6.987984180e-01, -8.146801591e-01, 
            1.785113811e-01, 3.653234839e-01, -1.848222166e-01, 
            -8.708472550e-02, -6.927067637e-01, -4.803298712e-01, 
            -1.592541218e+00, -9.577905536e-01, 1.194805354e-01, 
            -4.426909685e-01, -1.613662243e+00, -1.851573139e-01, 
            -2.774908781e+00, -5.224953890e-01, 1.991939843e-01, 
            -3.925583661e-01, -8.913481236e-02, 1.736916155e-01, 
            6.095399261e-01, 1.319153905e-01, -1.047660708e-01, 
            -1.600318193e+00, 2.595552802e-01, 5.106250048e-01, 
            -5.165830255e-02, 6.166253090e-01, -2.642154694e-01, 
            -6.375487149e-02},
        {-9.067362547e-01, -5.613895059e-01, -5.544147491e-01, 
            -8.160164356e-01, -6.038656235e-01, -2.347495854e-01, 
            1.274946570e+00, -2.601782680e-01, 1.826041341e-01, 
            -5.793748498e-01, -2.491464168e-01, -4.110443592e-01, 
            -2.802203178e+00, -1.319698691e+00, 8.750058711e-03, 
            -2.085976452e-01, 2.252356559e-01, -5.280096531e-01, 
            -7.885293365e-01, -3.904184699e-01, -1.270252943e+00, 
            5.231060982e-01, -1.048073053e+00, -3.637998998e-01, 
            4.371432960e-01, -3.820094764e-01, -1.208773926e-01, 
            4.665941298e-01, 2.523242235e-01, -7.205260396e-01, 
            -1.232282966e-01, -1.202657633e-02, -6.258798242e-01, 
            9.772662073e-02, 4.613470286e-02, 2.782841027e-01, 
            3.284406662e-02, -1.472019315e+00, -1.746013522e+00, 
            8.630657941e-02, -1.055285931e+00, -2.947670519e-01, 
            -2.964828610e-01, -2.203709781e-01, -1.813849360e-01, 
            -2.234226316e-01, -4.755042195e-01, -1.091841936e+00, 
            -8.702937961e-01, -6.829116344e-01, -3.301177323e-01, 
            -7.409078479e-01, -5.792001486e-01, 2.314946987e-02, 
            -7.798963040e-02, -3.754305542e-01, 3.241633475e-01, 
            -5.234920979e-02, 6.168754399e-02, -2.156735361e-01, 
            1.440312564e-01, -1.338894218e-01, 8.422957361e-02, 
            -7.340587378e-01, -1.002133250e+00, -4.746937454e-01, 
            2.796824276e-01, -4.532432854e-01, -2.263417244e-01, 
            -2.862754464e-01, 2.419184148e-01, -1.001075804e-01, 
            -5.282012820e-01, -3.604663372e+00, 2.097179554e-02, 
            -9.343782663e-01, -9.607708454e-01, -5.745871067e-01, 
            -4.314319789e-01, -1.442683339e+00, -1.392988563e-01, 
            -1.558814049e-01, -1.357167512e-01, -2.387231350e+00, 
            -4.527415335e-01, -3.768070936e-01, -9.928442836e-01, 
            -7.411464453e-01, -1.421079040e-01, 9.389238060e-02, 
            -6.722938418e-01, -1.013298750e+00, 2.387914360e-01, 
            -4.205205142e-01, -8.764351010e-01, 7.008846849e-02, 
            1.567649722e+00, -2.503692210e-01, -5.340990424e-01, 
            -6.985140443e-01},
        {9.567677230e-02, 3.774998784e-01, 8.065264225e-01, 
            -1.441705227e-01, 4.176335633e-01, -4.090883434e-01, 
            5.328505635e-01, -3.076253831e-01, -1.517909765e-01, 
            -1.434515715e-01, -7.249313593e-01, -1.129741311e+00, 
            -2.537412941e-01, -1.981607974e-01, -2.161381096e-01, 
            -4.240682349e-02, 6.049109697e-01, -1.089189053e+00, 
            4.776465297e-01, -3.160035908e-01, 3.706628680e-01, 
            -1.834286571e+00, 6.151153147e-02, -5.630102158e-01, 
            6.952800155e-01, 2.653154731e-01, 1.211164445e-01, 
            3.151046336e-01, -1.067426920e+00, -7.223252654e-01, 
            -4.842255712e-01, 3.071353212e-02, 4.387384057e-01, 
            -1.584814429e+00, 1.575739086e-01, -2.620496154e-01, 
            -1.319143295e+00, -1.056296110e+00, 5.838457942e-01, 
            -9.029699862e-02, -1.885126978e-01, 1.477657910e-02, 
            2.979207039e-01, 4.911709428e-01, -2.248864621e-01, 
            -3.867408931e-01, 2.296867371e-01, 2.876788974e-01, 
            -4.902693033e-01, -6.105170846e-01, -3.122915328e-01, 
            5.515691638e-01, -3.800549209e-01, -3.707284629e-01, 
            3.200855553e-01, -1.269285798e+00, 3.282715678e-01, 
            -2.022097111e-01, 2.946156859e-01, -4.036653638e-01, 
            7.613811493e-01, -1.330929518e+00, -1.794069052e+00, 
            -2.318421751e-01, 5.879227445e-02, 3.732734025e-01, 
            1.724892296e-02, -5.323547125e-01, 4.632887244e-01, 
            -7.746226788e-01, 6.099300981e-01, 4.125384092e-01, 
            3.897556067e-01, 3.730952740e-01, 6.491094232e-01, 
            -9.095013738e-01, -2.541159391e-01, -1.940634400e-01, 
            -6.520522833e-01, 1.947447360e-01, 2.254253924e-01, 
            -4.254319370e-01, 1.135753021e-01, 2.603628635e-01, 
            6.496848166e-02, 1.648176312e-01, -3.611637354e-01, 
            5.564951897e-01, -4.345627308e+00, -1.140886638e-02, 
            1.367556900e-01, 8.086453080e-01, -2.465064526e+00, 
            2.497703582e-01, -2.295007259e-01, 3.351197839e-01, 
            -2.406035513e-01, -2.541432977e-01, 1.116786301e-01, 
            2.687932253e-01},
        {4.811761677e-01, -2.737447619e-01, 3.640130460e-01, 
            6.743752956e-02, -1.477095634e-01, 5.613973737e-01, 
            1.712005883e-01, 1.033776179e-01, 3.411367238e-01, 
            -1.782801896e-01, -7.811572403e-02, -3.585344926e-02, 
            2.342015952e-01, 2.132893950e-01, 1.452250630e-01, 
            7.040766627e-02, -1.227883026e-01, 4.245164990e-01, 
            -1.725087687e-02, 5.401362181e-01, -1.845322996e-01, 
            -9.641322494e-02, 3.896153271e-01, 2.584346235e-01, 
            -2.238030881e-01, -5.663867593e-01, 5.320300162e-02, 
            5.964021012e-02, -6.601411849e-02, 8.098248392e-02, 
            2.580976784e-01, 1.631555110e-01, -1.592556685e-01, 
            2.432063073e-01, 5.681895018e-01, 1.589458585e-01, 
            2.020691894e-02, 1.795973927e-01, -2.074535191e-01, 
            3.186501190e-02, 3.665231168e-01, 3.159336448e-01, 
            -2.910629846e-02, -7.334051281e-02, 5.972339958e-02, 
            3.520529866e-01, 3.135059476e-01, 4.744059443e-01, 
            3.353376687e-01, -5.672752857e-01, -1.113562956e-01, 
            -1.420896351e-01, 9.648452401e-01, -1.770832092e-01, 
            -4.151348025e-02, 3.424909711e-01, -3.702506423e-01, 
            1.049732566e-01, 2.732782066e-01, 1.733388901e-01, 
            -1.196650788e-01, -2.908078432e-01, 2.383663654e-01, 
            5.113863349e-01, 4.082799256e-01, 3.882634938e-01, 
            1.658750176e-01, -2.242635339e-01, 2.184482850e-02, 
            -2.845744491e-01, 5.995463207e-02, 4.242106974e-01, 
            3.383651674e-01, 1.874097586e-01, 3.743122220e-01, 
            -7.641375996e-03, -1.825094074e-01, 2.078235000e-01, 
            2.395359799e-03, 3.328070343e-01, 2.288440764e-01, 
            1.267546117e-01, -1.822654009e-01, 1.190006882e-01, 
            -4.192784727e-01, -2.814598978e-01, 2.997721732e-01, 
            -7.585750520e-02, -4.187360406e-01, 1.026511490e-01, 
            -5.013218522e-01, 1.390372217e-01, 1.077579111e-01, 
            -7.065533847e-02, 3.758883476e-01, -4.219149053e-01, 
            7.398460060e-02, 4.215262234e-01, -3.198523223e-01, 
            -4.466609284e-02},
        {4.056778550e-01, 2.559390962e-01, -7.130910754e-01, 
            -1.627586335e-01, -2.648685500e-02, -3.910046071e-02, 
            -1.626699716e-01, -2.767401747e-02, 2.000968158e-01, 
            1.396922588e+00, 9.009765089e-02, -4.905226529e-01, 
            -1.089880347e+00, -2.684690654e-01, -3.721103370e-01, 
            2.112779170e-01, 9.594036639e-02, 1.236763746e-01, 
            -9.044086561e-03, 5.303944647e-02, -1.067867875e-01, 
            -1.139600515e+00, 4.161272049e-01, -1.667339951e-01, 
            5.431657434e-01, 5.182632804e-01, 6.410442293e-02, 
            3.101089597e-01, -1.295180619e-01, -2.477179915e-01, 
            -5.423933268e-01, -2.405285649e-02, 7.002834082e-01, 
            7.927800715e-02, -3.035174608e-01, -1.281954885e+00, 
            -4.407929480e-01, -4.767348170e-01, 3.695113361e-01, 
            -6.577739120e-02, -5.864204168e-01, 3.914849162e-01, 
            9.490320683e-01, -3.172047436e-01, 1.000855714e-01, 
            -6.962784380e-02, -1.703768075e-01, -2.133510411e-01, 
            1.166511402e-01, 7.162174582e-01, 1.784115136e-01, 
            3.401331007e-01, 3.659851477e-02, -6.416970491e-02, 
            1.607136279e-01, -4.262231290e-02, -2.162541300e-01, 
            1.121575683e-01, -3.536177427e-02, 4.498068392e-01, 
            -2.023071200e-01, -2.527660131e-02, 2.991394103e-01, 
            1.245129853e-01, 7.081881166e-02, 4.362182617e-01, 
            -5.442953110e-01, -4.776236117e-01, -6.478132606e-01, 
            -1.634356856e+00, 1.485022306e-01, 1.100668609e-01, 
            -6.846150011e-02, 3.034376800e-01, -5.286973715e-01, 
            -1.124246597e+00, 8.359954953e-01, 2.956699952e-02, 
            2.224605531e-01, -3.664050996e-01, 1.039152890e-01, 
            -4.595672190e-01, -2.903641462e-01, -1.488496810e-01, 
            -5.249098539e-01, -5.663446784e-01, 3.423854113e-01, 
            -8.611611128e-01, 1.579762995e-01, -4.525533915e-01, 
            -2.046786100e-01, -3.928425014e-01, -6.323715299e-02, 
            6.970335841e-01, -4.903056845e-02, -7.348448783e-02, 
            -4.661962986e-01, -1.998503357e-01, 7.129809260e-01, 
            -2.347351313e-01},
        {1.876584142e-01, -1.425442249e-01, -1.827205569e-01, 
            2.187922001e-01, -7.447782159e-01, 3.031994402e-01, 
            1.041866541e+00, 1.161624715e-01, -1.090672240e-01, 
            -7.933189869e-01, -7.372922897e-01, -5.821359158e-01, 
            1.941209882e-01, 7.073090971e-02, -8.070572466e-02, 
            -6.601891667e-02, -1.394067287e+00, 1.390095800e-01, 
            5.301615596e-02, -2.185566574e-01, 5.902627110e-01, 
            3.718368709e-01, 1.274558008e-01, 2.060687914e-02, 
            -6.984274983e-01, -1.534325838e+00, -4.468906224e-01, 
            9.933671914e-03, 9.746077657e-01, 7.881663442e-01, 
            1.828134358e-01, -9.357817471e-03, -1.158238292e+00, 
            -2.569206953e-01, 1.527624369e+00, 3.639700636e-02, 
            -4.382900000e-01, -1.507731199e+00, -1.699526906e-01, 
            6.544948369e-02, -2.887111008e-01, 9.640177339e-02, 
            -5.478724241e-01, -2.224480361e-01, 5.841062665e-01, 
            1.056974530e-01, -5.288255811e-01, -4.714019597e-01, 
            -8.550399542e-02, -1.012376249e-01, 2.288620621e-01, 
            -5.506126955e-02, 2.884936333e-01, -2.906103134e-01, 
            -1.342699826e-01, -1.228133738e-01, -2.064607888e-01, 
            5.440366641e-02, -1.808339506e-01, 2.017304599e-01, 
            -2.285270095e-01, -3.438836336e-01, 4.147065282e-01, 
            -1.098592058e-01, 1.599071324e-01, -4.605190158e-01, 
            -3.490311205e-01, 1.626939923e-01, 5.782795548e-01, 
            -7.904309034e-02, 7.610750198e-02, 2.575693466e-02, 
            -6.433381140e-02, 4.957499504e-01, -1.181879081e-02, 
            1.825849563e-01, -7.020665407e-01, -8.825886250e-01, 
            6.321435571e-01, -3.167226315e-01, -1.515902132e-01, 
            -4.843086898e-01, 9.824740887e-02, 1.451932192e-01, 
            1.900146604e-01, -5.731408000e-01, 2.323781103e-01, 
            2.465112805e-01, 4.120207429e-01, -3.084067814e-02, 
            -1.537115276e-01, -1.375551969e-01, -1.768425554e-01, 
            -1.626728028e-01, 2.954517007e-01, -9.238036871e-01, 
            5.046108365e-01, 2.321254462e-01, -1.688163400e+00, 
            7.923685014e-02},
        {1.243928820e-01, 3.591031581e-02, 7.638560534e-01, 
            -3.239864707e-01, -5.087631941e-01, -1.352847934e+00, 
            3.322774544e-02, 3.696478307e-01, -2.300975174e-01, 
            8.065959811e-02, -6.758886389e-03, -1.145581245e+00, 
            3.623355329e-01, -6.505287886e-01, -8.837504685e-02, 
            7.065030932e-01, -1.599895120e+00, 2.240519077e-01, 
            4.102212787e-01, 4.844648540e-01, 4.053005874e-01, 
            -7.953422070e-01, 5.729255453e-02, 2.360704541e-01, 
            4.652716219e-01, -2.351863682e-01, 2.163509429e-01, 
            -3.944438398e-01, 4.167035222e-01, -1.034843445e+00, 
            -2.418357879e-01, -3.588058650e-01, -1.423459947e-01, 
            8.072844893e-02, 4.678041637e-01, -6.138471961e-01, 
            -3.251923919e-01, -4.357746840e-01, 3.332396150e-01, 
            2.574146986e-01, -9.327531606e-02, 1.197767496e+00, 
            -3.549230844e-02, 5.502526462e-02, -1.352086365e-01, 
            2.187738866e-01, -1.648428142e-01, -9.068894386e-01, 
            4.811328277e-02, 1.951102726e-02, 3.188734651e-01, 
            -1.966717988e-01, 3.018558621e-01, 6.602073908e-01, 
            -5.813301206e-01, 1.295914650e-01, -7.223222852e-01, 
            -3.401681315e-03, 3.183815479e-01, 3.781008720e-02, 
            1.115561247e+00, -5.726578832e-02, 3.136584461e-01, 
            -1.932000220e-01, -6.221650243e-01, 4.439592361e-01, 
            -4.869147837e-01, 2.728899568e-02, 1.238866150e-01, 
            -3.867740333e-01, -5.368112326e-01, -9.674724936e-02, 
            9.327998757e-02, 6.718080491e-02, 1.113549918e-01, 
            -3.934246302e-02, -4.976089299e-02, -3.625722229e-01, 
            5.191098452e-01, -4.863036275e-01, -2.734016478e-01, 
            -1.295560747e-01, -6.082781553e-01, -2.623295039e-02, 
            -4.962674975e-01, -5.660617948e-01, -4.599204957e-01, 
            -3.573475480e-01, 1.746448874e-01, -3.692141771e-01, 
            8.033638448e-02, -2.095996439e-01, -2.665110528e-01, 
            3.663977385e-01, -4.832064211e-01, -1.066181064e+00, 
            -2.589792311e-01, 1.719602570e-02, -4.203634858e-01, 
            6.972172111e-02},
        {2.202713490e-01, -3.782465160e-01, 1.114277914e-01, 
            -5.229253322e-02, 4.727063328e-02, 1.151030213e-01, 
            1.682624221e-01, -5.456491113e-01, 9.339616448e-02, 
            -1.489113718e-01, 2.750103176e-01, 1.329006106e-01, 
            1.782172620e-01, 1.337546557e-01, 5.635156035e-01, 
            -7.501899600e-01, -5.254233256e-02, -1.504493058e-01, 
            2.599328756e-02, -1.944007427e-01, -1.928772092e+00, 
            4.490492344e-01, 4.282233715e-01, 3.853787780e-01, 
            -2.000870705e-01, -4.503363669e-01, -1.632643789e-01, 
            1.558766216e-01, -2.275262401e-02, -1.129704595e+00, 
            5.091772079e-01, 9.423424006e-01, -8.088786602e-01, 
            1.749057770e-01, -1.045879245e+00, 4.644245505e-01, 
            1.617918760e-01, 3.504365385e-01, 3.900958300e-01, 
            -3.664017320e-01, 3.281463087e-01, -4.269089699e-01, 
            -2.994570136e-01, 8.917414397e-02, -2.313504219e-01, 
            -1.625806689e-01, -1.906200796e-01, 2.863394022e-01, 
            2.761715651e-02, 6.905192975e-03, -3.281601071e-01, 
            -1.182274938e+00, -1.318946630e-01, 1.427107900e-01, 
            -8.082225323e-01, 1.036834493e-01, 2.231951952e-01, 
            -1.276157200e-01, 4.906924665e-01, -1.525471061e-01, 
            -5.576923490e-01, -7.307913899e-01, -5.832553655e-02, 
            1.193996966e-01, -2.731142342e-01, 1.530620158e-01, 
            5.477250814e-01, -4.347415268e-01, -1.170672402e-01, 
            -5.123987049e-02, -5.201805830e-01, 2.007864118e-01, 
            -1.611617804e-01, 2.757081091e-01, -2.053610981e-01, 
            -4.016804099e-01, 4.000899792e-01, 3.549240902e-02, 
            -7.567401528e-01, -1.369034350e-01, 4.697079957e-01, 
            -8.278413415e-01, -1.947433501e-01, -1.239609793e-01, 
            -2.366984636e-01, 4.939104319e-01, 1.670831293e-01, 
            1.325161904e-01, 1.004907116e-01, -2.116650194e-01, 
            4.523390830e-01, -2.098470228e-03, -1.029789448e-01, 
            -8.094386458e-01, -3.060186505e-01, -3.277915716e-01, 
            8.745665848e-02, 4.747685492e-01, -7.629272342e-01, 
            5.462502241e-01},
        {-4.813446105e-02, -8.432612568e-02, 8.073482662e-02, 
            -1.224463880e-01, 8.478792012e-02, 9.737258404e-02, 
            -1.821932197e-01, 2.891127393e-02, 1.085176468e-01, 
            -1.771575361e-01, -1.709540784e-01, -1.986455172e-01, 
            -7.802011818e-02, -2.045200020e-01, 2.063300461e-02, 
            -6.492508203e-02, -1.256685257e-01, -1.379121095e-01, 
            -9.939486161e-03, -1.851197183e-01, 2.690161765e-02, 
            1.284606606e-01, 1.149786338e-01, 6.313274801e-02, 
            1.456080824e-01, 1.328519173e-02, -8.805046976e-02, 
            -6.524051074e-03, -1.972099692e-01, 1.924529523e-01, 
            -1.767365634e-01, 2.154400200e-02, 7.173356414e-02, 
            -3.962929174e-02, -1.119731367e-01, -2.039401680e-01, 
            1.458652467e-01, -5.849808082e-02, 4.848308489e-02, 
            2.467330545e-02, -1.206449047e-01, -1.081917956e-01, 
            6.096253917e-02, -1.500899494e-01, -6.323150545e-02, 
            9.421206266e-02, -3.351788595e-02, -5.724648386e-02, 
            -1.823772639e-01, -9.523858875e-02, -1.537294537e-01, 
            -8.024404198e-02, 4.871371016e-02, 1.531078964e-01, 
            -1.546988338e-01, -1.934735775e-01, -2.138389088e-02, 
            3.214918077e-02, -7.305989414e-02, 2.240668237e-02, 
            -2.278437093e-02, -1.012271643e-01, -9.167356789e-02, 
            -2.883888222e-02, 3.203442693e-02, 1.455308497e-02, 
            -4.404780269e-02, -1.371778548e-01, -5.062242039e-03, 
            5.985176563e-02, 1.682010666e-02, 1.204631552e-01, 
            -5.829308182e-02, -7.108771056e-02, -4.095087294e-03, 
            1.293698549e-01, 1.525111049e-01, -1.634094864e-01, 
            3.629695252e-02, -1.594909728e-01, -7.917001843e-02, 
            1.201069951e-01, -1.162457019e-01, -1.331574917e-01, 
            4.347933829e-02, -1.100848392e-01, -8.339431137e-02, 
            -5.814101547e-02, -1.858123094e-01, 3.201247379e-02, 
            -5.527672544e-02, -2.675303519e-01, -1.830927432e-01, 
            -9.262940288e-02, -9.223681688e-02, -1.804402471e-01, 
            4.204993893e-04, 5.221812427e-02, 5.691429228e-02, 
            9.115794301e-02},
        {-1.049569249e-02, 6.178883314e-01, -2.751540244e-01, 
            -2.279439569e-01, 5.293123126e-01, -7.097631097e-01, 
            4.341200292e-01, -4.350817204e-01, -6.583829522e-01, 
            -3.604165316e-01, 1.056526974e-01, 3.560566530e-02, 
            7.913516462e-02, 1.165509671e-01, -1.084813833e+00, 
            -9.679390490e-02, 2.283980697e-01, 3.877636790e-02, 
            -2.621719241e-01, -2.093092203e-01, -9.544378519e-02, 
            8.908518404e-02, -1.878959239e-01, -2.710360289e-01, 
            -2.578726709e-01, -5.189464986e-02, -7.221283764e-02, 
            1.380231529e-01, 6.348655373e-02, -4.762872458e-01, 
            -1.214243397e-01, 3.345930278e-01, -2.972910702e-01, 
            -1.324265897e-01, 6.907543540e-02, -4.682904780e-01, 
            3.431397676e-01, -6.283378005e-01, 8.073124290e-02, 
            1.104333624e-01, -2.612153888e-01, 2.902935818e-02, 
            -1.658292860e-01, -8.999951184e-03, -5.394907594e-01, 
            4.695938230e-01, 6.846159697e-01, -9.179071337e-02, 
            -3.344349563e-01, -6.950795650e-02, 2.259197384e-01, 
            -6.119219959e-02, 3.061397970e-01, 2.819267213e-01, 
            -4.598228335e-01, -4.987451732e-01, 5.356094241e-01, 
            2.479998469e-01, 2.104573548e-01, -5.526216626e-01, 
            -5.862693191e-01, 1.130368710e-01, -2.871239185e-01, 
            2.421763539e-01, -8.549322486e-01, 2.389930040e-01, 
            -5.268073082e-01, -6.416463256e-01, 1.025748491e+00, 
            -2.708417773e-01, 1.820554733e-01, 8.862181753e-02, 
            -7.462888211e-02, 2.438654751e-01, -3.533818424e-01, 
            -7.372770458e-02, 1.448235959e-01, -2.012079209e-01, 
            -2.936678827e-01, 7.940206677e-02, 5.230289102e-01, 
            -7.062008381e-01, 1.889007539e-01, 4.281439185e-01, 
            2.834632993e-02, -4.050410390e-01, -2.217748910e-01, 
            1.978449672e-01, 2.595451176e-01, -5.334562659e-01, 
            2.868442833e-01, -6.163057685e-01, -7.045667619e-02, 
            -5.244789124e-01, 1.153650582e-01, 4.619541019e-02, 
            -5.610764623e-01, -2.785275280e-01, 7.779888064e-02, 
            -1.477832347e-01},
        {1.944848597e-01, -8.846367151e-02, 3.909733295e-01, 
            2.432879657e-01, -2.577212453e-01, -9.843996167e-01, 
            5.044465661e-01, -2.549237311e-01, 3.941980898e-01, 
            -3.268942237e-02, -1.106140167e-01, -5.248143077e-01, 
            1.779981256e-01, -5.876815319e-01, 4.777739570e-02, 
            2.045261860e-01, -4.725245833e-01, 1.088873744e-01, 
            -1.498617977e-01, 2.811680138e-01, -9.252392501e-02, 
            -1.255938262e-01, 4.140317906e-03, 6.053261161e-01, 
            1.065507606e-01, -2.029421777e-01, 5.327464342e-01, 
            1.557894498e-01, 4.045500457e-01, 2.966300547e-01, 
            2.272590995e-01, -1.241677925e-01, 6.692800671e-02, 
            -2.922871150e-02, -7.082193494e-01, -8.098843694e-02, 
            -1.883475631e-01, 8.081026375e-02, -3.649259210e-01, 
            -2.867100239e-01, -7.205487043e-02, -1.598140001e-01, 
            7.086198777e-02, -1.418491602e-01, -6.090223193e-01, 
            -3.321619332e-01, -1.775804311e-01, 1.644629985e-01, 
            4.040897191e-01, 3.872019947e-01, -1.672729850e-01, 
            -1.533959154e-02, -3.102779150e+00, -2.075672001e-01, 
            1.451128721e-01, 5.751383901e-01, -3.503940701e-01, 
            -7.477292418e-02, 6.391034126e-01, 5.350323915e-01, 
            1.033671573e-01, -4.979478419e-01, 3.800733089e-01, 
            2.937829308e-02, -1.563115567e-01, -1.925578527e-02, 
            3.932092190e-01, -2.453466505e-01, -3.461052179e-01, 
            -2.054531127e-01, 1.437301748e-02, -7.117599845e-01, 
            2.277342230e-01, 3.045629859e-01, 1.256449074e-01, 
            9.348003566e-02, -2.767566964e-02, -1.889882237e-01, 
            2.572124004e-01, -1.969012246e-02, 2.894037962e-01, 
            -2.435793877e-01, -3.704608381e-01, 1.023116782e-01, 
            -3.320846260e-01, 8.387471437e-01, 1.874975413e-01, 
            -7.482548803e-02, -2.053283304e-01, -3.216973543e-01, 
            -9.445799589e-01, 3.903948516e-02, 1.358802021e-01, 
            1.769906282e-01, -2.353839576e-01, -4.928735793e-01, 
            -4.144705308e-04, 1.021420211e-01, -5.395298004e-01, 
            3.162030876e-01},
        {-4.313190281e-01, 1.948548853e-01, -3.548805714e-01, 
            -4.960482195e-02, 1.023915038e-01, 1.462512016e+00, 
            7.754272781e-03, 9.483891726e-02, -1.599867344e-01, 
            -5.487263203e-01, 5.047416687e-01, 1.347511858e-01, 
            -2.371899039e-01, -3.074834645e-01, -3.784814775e-01, 
            -2.579872608e-01, -2.660006285e-02, -5.613087416e-01, 
            5.648665428e-01, -1.588608027e-01, -5.536187813e-02, 
            5.179163814e-01, 2.303521782e-01, 3.284818307e-02, 
            -3.953128755e-01, 3.756972402e-02, -4.790656641e-02, 
            7.828233242e-01, 3.827318251e-01, 6.119557619e-01, 
            1.823471487e-01, 4.114097357e-02, -1.312450022e-01, 
            2.731196284e-01, 1.196459651e+00, 1.638987660e-01, 
            4.383928478e-01, -7.698884010e-01, -3.862921894e-02, 
            -9.006034136e-01, -1.807669252e-01, 1.082403734e-01, 
            -4.365824759e-01, -2.492928179e-04, -3.287362158e-01, 
            5.650573969e-01, 8.490571380e-02, -1.736585498e-01, 
            -4.711157978e-01, -3.486319184e-01, 4.327536747e-02, 
            2.322190208e-03, -5.962949395e-01, -7.911176682e-01, 
            9.770217538e-01, 4.460575581e-01, 1.094209999e-01, 
            -7.838559151e-01, 6.154095754e-02, 5.599019304e-02, 
            -4.145460725e-01, -1.627472639e-01, 1.483097523e-01, 
            -5.097013712e-01, 3.759920597e-03, -3.052693009e-01, 
            4.235788286e-01, -1.363859177e-01, -3.673996329e-01, 
            -5.693846345e-01, -9.965356588e-01, -2.713352256e-02, 
            -3.054093719e-01, -3.551855087e-01, -5.963343382e-01, 
            -6.880440712e-01, -7.621527463e-02, -7.587132454e-01, 
            4.308085889e-02, 4.027922750e-01, 7.754094899e-02, 
            4.647441208e-01, 1.467947245e+00, -1.549135089e+00, 
            2.404995412e-01, -4.803138375e-01, -1.989590228e-01, 
            8.497812599e-02, 9.524880052e-01, -1.195171103e-01, 
            8.375005722e-01, -2.350757420e-01, -1.280249376e-02, 
            1.650372595e-01, -4.567296505e-01, 3.684226796e-02, 
            -3.556055725e-01, -2.568350546e-02, -9.932021052e-02, 
            7.918049395e-02},
        {2.299020141e-01, -1.695895195e-01, 3.693318665e-01, 
            2.127270848e-01, 2.930701151e-02, 2.267389297e-01, 
            -1.925902255e-02, 1.208949462e-02, -7.851151377e-02, 
            -1.001826227e-01, 1.147086844e-01, 4.589757621e-01, 
            4.161133468e-01, 5.171751231e-02, -1.265993863e-01, 
            1.360767782e-01, -1.410607815e+00, -1.448529363e-01, 
            3.696616590e-01, 1.851117760e-01, 2.241182476e-01, 
            6.850485802e-01, -1.587574780e-01, 2.309734374e-01, 
            -1.404869854e-01, 8.658078313e-02, -2.583191395e-01, 
            -3.849394619e-01, 5.706427097e-01, -2.166023850e-01, 
            -5.114933252e-01, -3.844287097e-01, 2.940713465e-01, 
            -2.651968896e-01, 5.088754892e-01, 3.904411942e-02, 
            -2.307234257e-01, 1.777888462e-02, -5.462535620e-01, 
            1.148934066e-01, -6.790418625e-01, 3.741831779e-01, 
            -1.945379525e-01, -1.368113160e-01, -2.805173211e-02, 
            -2.134758383e-01, -9.162852913e-02, -7.661799788e-01, 
            7.432137430e-02, -1.052887589e-01, 6.615471095e-02, 
            7.698188722e-02, 8.065976501e-01, 7.946211696e-01, 
            -3.702558279e-01, 2.260956764e-01, -4.903126359e-01, 
            2.608655691e-01, 1.958122104e-01, 1.185818017e-01, 
            3.751114011e-02, -1.039902195e-01, 1.300816059e+00, 
            2.790398300e-01, -1.212404221e-01, -1.341129392e-01, 
            -3.661230505e-01, -1.314915121e-01, -4.559288621e-01, 
            1.799113005e-01, 4.802477360e-01, 3.488596976e-01, 
            -2.194960117e-01, 2.621427178e-01, 6.606349945e-01, 
            -5.019333959e-01, 1.210341975e-01, -3.181743622e-01, 
            5.645936728e-01, 2.585291266e-01, -1.280579716e-01, 
            2.483581007e-01, -2.057986856e-01, 4.010105729e-01, 
            -1.679660678e-01, 1.831782699e+00, 8.332322240e-01, 
            2.056424469e-01, -1.022865772e-01, 5.917735398e-02, 
            -7.178419828e-02, -4.116033614e-01, -4.642412663e-01, 
            3.914997578e-01, -9.563345313e-01, -6.739429832e-01, 
            -2.818972468e-01, -3.641870320e-01, -5.010982156e-01, 
            1.314238906e-01},
        {7.067806274e-02, 2.397633195e-01, -7.790668011e-01, 
            5.039802194e-01, -2.955730073e-02, -7.321518064e-01, 
            1.638190895e-01, -1.759676039e-01, 1.367975920e-01, 
            2.732419781e-02, 2.716732323e-01, 3.355609775e-01, 
            7.458081841e-02, 2.591484189e-01, -2.314933389e-01, 
            -1.069289297e-01, -1.104166657e-01, 1.563584954e-01, 
            -3.971052468e-01, 3.508579731e-01, 3.073002994e-01, 
            -2.207080275e-01, 2.815610766e-01, -7.905126363e-02, 
            -3.266710043e-01, 5.540762097e-02, 1.572538763e-01, 
            -1.302647293e-01, 1.296435446e-01, -3.403217793e-01, 
            -3.230260015e-01, -2.018209249e-01, 1.896755546e-01, 
            -3.371348083e-01, -5.821945667e-01, -2.553225756e-01, 
            7.708163559e-02, 1.549599171e-01, 2.813173831e-01, 
            4.153456688e-01, 7.686403394e-02, 1.372554805e-02, 
            7.605800405e-03, -2.836650610e-01, -3.864291310e-01, 
            -1.077462733e-01, -5.800030380e-02, 8.676123619e-02, 
            3.040302694e-01, -2.881368399e-01, -1.804404408e-01, 
            7.962921262e-02, -2.408762872e-01, -6.332694292e-01, 
            1.644645445e-02, -1.407928467e-01, -4.483164847e-01, 
            -1.305212826e-01, 4.232634306e-01, 2.435730994e-01, 
            5.584043860e-01, 2.877680063e-01, 1.287216544e-01, 
            5.789743364e-02, 2.854350209e-01, 5.031334981e-02, 
            -8.836321831e-01, -7.978687435e-02, -3.115873039e-01, 
            -7.294346094e-01, -4.184529185e-01, -9.179527760e-01, 
            2.954335511e-01, 1.185298786e-01, -3.616345674e-02, 
            -1.419358552e-01, -2.121665925e-01, 4.752030596e-02, 
            3.010744452e-01, -2.299707010e-02, 1.451142579e-01, 
            -1.031984538e-01, -4.878274500e-01, -4.417941868e-01, 
            1.221646816e-01, -3.984878659e-01, 3.384147584e-01, 
            1.090794504e-01, -2.717119157e-01, 5.752887130e-01, 
            -6.754939556e-01, 3.803443015e-01, -1.207921579e-01, 
            2.733640671e-01, 1.151735634e-01, 4.645275697e-02, 
            -1.689359248e-01, -3.003698289e-01, -1.876902729e-01, 
            -1.255912483e-01},
        {-2.175417691e-01, 8.880692720e-02, 1.069400012e-01, 
            -6.568744779e-02, 6.540153921e-02, -1.121763110e+00, 
            -2.014218420e-01, 7.589298487e-02, 2.130449414e-01, 
            1.368986964e-01, 5.562801287e-02, 3.680539085e-04, 
            1.457375586e-01, 1.991846710e-01, -1.086148340e-02, 
            -8.694586903e-02, -6.880789399e-01, -3.141724169e-01, 
            2.266881168e-01, 3.875907976e-03, 5.584273934e-01, 
            4.493384436e-02, -4.738652706e-02, -6.888301112e-03, 
            3.143524528e-01, -9.261777997e-02, -5.124474764e-01, 
            -1.052167714e-01, -1.034726948e-01, -9.942741394e-01, 
            -3.193618655e-01, -1.609944254e-01, -5.134042725e-02, 
            -1.931084841e-01, 9.444174170e-01, -3.843725920e-01, 
            -4.274246991e-01, 4.913748205e-01, 3.350900710e-01, 
            -7.088839076e-03, -2.996298075e-01, -2.473131120e-01, 
            -3.256732225e-01, -6.086743996e-02, -1.038122475e-01, 
            1.469887197e-01, -1.572579145e-01, 4.947124124e-01, 
            -4.631158710e-01, -5.913653374e-01, 3.806194365e-01, 
            6.233832240e-01, 1.494559646e-01, 5.736715794e-01, 
            2.094817311e-01, -1.660370082e-02, -8.673798293e-02, 
            3.252669871e-01, -1.341362149e-01, -2.777007818e-01, 
            2.754386365e-01, -7.422559857e-01, -4.268094003e-01, 
            5.765788555e-01, -6.685100794e-01, 3.113796413e-01, 
            5.272624269e-02, -6.372541189e-01, -1.579122841e-01, 
            -6.131740212e-01, 8.137971759e-01, 1.553404331e-01, 
            -3.038317263e-01, 3.974171728e-02, -5.987133980e-01, 
            1.776485741e-01, 5.487862825e-01, 5.873868465e-01, 
            -3.869484663e-01, -2.829619311e-02, 1.298308969e-01, 
            -2.484448105e-01, -4.661620408e-02, 1.867337227e-01, 
            5.518561006e-01, -7.765135765e-01, -4.563794136e-01, 
            -9.337602556e-02, -1.245206222e-01, 3.606199324e-01, 
            1.886343062e-01, -1.123980135e-01, -1.885660887e-01, 
            1.706918627e-01, -2.394323349e-01, -1.503665298e-01, 
            2.914527059e-02, -3.226025105e-01, -9.845978022e-02, 
            -6.190057378e-03},
        {5.193256959e-02, 4.269907996e-02, 3.054936826e-01, 
            4.262953699e-01, -1.559663117e-01, -1.011246443e+00, 
            -3.711043298e-02, -2.635696530e-01, -8.613271266e-02, 
            2.775808871e-01, 7.622362580e-03, -3.680803776e-01, 
            -1.597713381e-01, -1.022062451e-01, 3.231457770e-01, 
            -7.730993032e-01, -2.054374814e-01, 8.236891776e-02, 
            -1.814278513e-01, -2.479089983e-02, 3.298752755e-02, 
            -5.485730246e-02, 7.001678348e-01, 4.172261059e-01, 
            -2.577029169e-01, 1.319519430e-01, 5.470963717e-01, 
            1.606834531e-01, 7.562552392e-02, 3.447630405e-01, 
            2.196256071e-02, -1.633568853e-01, -1.032662764e-01, 
            -2.026675642e-01, 1.068171263e-01, -1.215198487e-01, 
            9.536048770e-02, -2.948980033e-01, 3.162493706e-01, 
            -1.510374062e-02, -9.328154847e-03, -2.355408370e-01, 
            6.110107899e-01, 4.254685640e-01, -9.925162792e-01, 
            4.567375779e-01, -1.368060708e-01, -2.547837198e-01, 
            5.864920616e-01, 4.991886616e-01, -4.260193110e-01, 
            -1.882722378e-01, -1.733954996e-01, 1.201970696e+00, 
            -2.631686032e-01, 2.503495514e-01, -2.130865753e-01, 
            -1.686592937e+00, 4.706122875e-01, 5.001385212e-01, 
            2.775025666e-01, -1.246924400e-01, -2.827511169e-02, 
            -9.857497811e-01, -1.695170850e-01, -5.907031298e-01, 
            -3.371749520e-01, 5.446876884e-01, -2.194311470e-01, 
            6.994469166e-01, -4.293791652e-01, -8.570171595e-01, 
            3.097931743e-01, 1.793060005e-01, 1.338653862e-01, 
            2.202673256e-01, 4.508375525e-01, -2.980492264e-02, 
            2.459257990e-01, 4.115672410e-02, 1.924245209e-01, 
            6.073222682e-02, -1.068382740e+00, -6.819532514e-01, 
            -1.653243899e-01, 6.754521728e-01, 7.358147949e-02, 
            -7.621054351e-02, 7.442364693e-01, -2.525770664e-01, 
            4.355207682e-01, 2.705138922e-01, 3.872882947e-02, 
            9.639103711e-02, 5.686506629e-02, -1.254827231e-01, 
            1.254276372e-02, -1.528279334e-01, 5.601974577e-02, 
            1.298140585e-01},
        {-4.395781159e-01, -1.414010286e+00, -2.706454098e-01, 
            -1.920742244e-01, -3.899582326e-01, 9.347996116e-02, 
            6.217629910e-01, 3.011960089e-01, 5.401509404e-01, 
            -5.401335955e-01, 5.447912812e-01, 2.156869974e-03, 
            -8.029956222e-01, 1.905432343e-01, -1.474869102e-01, 
            -6.713205576e-02, -4.741923511e-01, 4.153770208e-02, 
            -1.141657352e+00, 3.971197084e-02, -1.735924035e-01, 
            6.436691619e-03, 6.533545908e-03, -1.446218193e-01, 
            -7.978166938e-01, -6.229245663e-01, -9.666019678e-01, 
            7.602099329e-02, 1.811349392e-01, -7.699006796e-01, 
            7.236614823e-01, 1.520886719e-01, -1.726126671e+00, 
            5.175659060e-01, 1.496411085e+00, 3.278737664e-01, 
            2.044736892e-01, -7.035101056e-01, 1.643657833e-01, 
            1.462283432e-01, -5.785498023e-01, 5.405888557e-01, 
            -1.574325562e-01, 2.567853332e-01, -3.665646911e-01, 
            6.098909676e-02, 5.427638292e-01, -6.599202156e-01, 
            -3.435248733e-01, 2.314543128e-01, 4.100257158e-01, 
            -7.790036201e-01, -6.037927791e-02, -9.991585463e-02, 
            -9.033458829e-01, -3.907318413e-01, 2.984223962e-01, 
            -7.330434769e-02, 4.096373916e-01, -1.435663342e+00, 
            3.991034329e-01, 2.581873536e-01, 2.045058273e-02, 
            8.078364283e-02, -6.461732984e-01, -2.919219136e-01, 
            -2.217806131e-01, -3.575270474e-01, 1.638781726e-01, 
            -1.054738164e+00, -2.377215624e-01, 4.346542358e-01, 
            2.165737897e-01, 2.906095088e-01, -1.144887879e-01, 
            -7.563887239e-01, 2.498812973e-01, -2.090203613e-01, 
            -6.492825747e-01, 9.472435713e-01, -4.611487500e-03, 
            4.622793794e-01, 5.703746900e-02, -7.091088295e-01, 
            -9.360028058e-02, -4.461366236e-01, 5.268115401e-01, 
            5.902343392e-01, 5.536339805e-02, 1.144367233e-01, 
            1.909468770e-01, 9.264650755e-03, 4.262079298e-01, 
            -1.828155279e+00, -3.478460610e-01, -3.210381269e-01, 
            9.337745607e-02, 1.930055320e-01, -7.660242170e-02, 
            -1.174170151e-01},
        {2.395633608e-02, 2.185906768e-01, -7.813455462e-01, 
            2.096782625e-01, 3.284295201e-01, 5.578355789e-01, 
            2.027481347e-01, 1.553638726e-01, -1.743529886e-01, 
            -1.998872608e-01, -1.653602272e-01, 1.967808008e-01, 
            3.212916255e-01, 9.524625540e-02, -3.116792142e-01, 
            -2.023781836e-02, 2.890157402e-01, 1.910879314e-01, 
            -9.042209946e-03, 5.182843804e-01, 2.652001083e-01, 
            4.164033104e-03, 6.252121925e-02, -2.492936552e-01, 
            -4.948201776e-01, -1.164956391e-01, 5.863495916e-02, 
            5.403354391e-02, -1.553019643e+00, -3.604476750e-01, 
            -1.758732051e-01, -1.217253804e-01, -2.040120512e-01, 
            -9.242714196e-02, -2.855965197e-01, 3.941566646e-01, 
            -4.412503839e-01, -3.403247297e-01, -2.470169216e-01, 
            6.692854166e-01, -5.605646372e-01, 4.337393343e-01, 
            -1.832749397e-01, -3.713936806e-01, 6.276114583e-01, 
            2.032835633e-01, 7.732065916e-01, -4.818557501e-01, 
            1.409366429e-01, -5.055516362e-01, 5.590643287e-01, 
            3.314948082e-01, 1.928939074e-01, -3.534466624e-01, 
            -2.448783517e-01, -3.187587261e-01, 1.790953726e-01, 
            1.358007193e-01, -6.946709752e-01, -1.862141341e-01, 
            -3.944537342e-01, -4.821703136e-01, -3.526671231e-02, 
            -1.697958410e-01, 1.569375843e-01, -3.089525998e-01, 
            -2.044433951e-01, -2.849075794e-01, -4.309772551e-01, 
            -5.427062511e-01, 5.616777763e-02, -1.159962341e-01, 
            3.282217085e-01, 6.692919135e-02, -2.121587247e-01, 
            3.897816539e-01, -1.506194770e-01, -2.383322418e-01, 
            -8.649278283e-01, -3.419879973e-01, -4.342278838e-01, 
            -1.615439504e-01, -1.613661796e-01, -6.639451981e-01, 
            -8.036247641e-02, -7.354836464e-01, 2.467325628e-01, 
            4.594863653e-01, -2.075439133e-02, 3.951883614e-01, 
            -1.762093604e-01, 2.657331713e-02, -3.180872500e-01, 
            1.996811181e-01, 2.879115345e-04, 1.702959985e-01, 
            -2.082721889e-01, 3.233812451e-01, 5.717554092e-01, 
            -4.862136245e-01},
        {8.818864822e-03, -7.727437653e-03, -4.268972874e-01, 
            6.187637895e-02, -4.875859320e-01, -3.033422232e-01, 
            1.145413890e-01, 1.159677207e-01, 3.911824226e-01, 
            -2.484328300e-01, 4.358517826e-01, -6.613340974e-01, 
            -3.808024824e-01, 1.440872103e-01, 3.192743659e-01, 
            6.651436687e-01, -3.855946064e-01, -2.770872116e-01, 
            -1.432840973e-01, -4.529775083e-01, -2.299953625e-02, 
            5.011571646e-01, 1.694659740e-01, 2.765620649e-01, 
            4.598328173e-01, -6.643416286e-01, -5.818562955e-02, 
            -1.589700580e-02, 5.372666717e-01, 5.750853196e-02, 
            -2.992613316e-01, -4.586111009e-02, -1.842000186e-01, 
            -1.790209562e-01, 5.801398754e-01, 7.416896522e-02, 
